{"learner":{"attributes":{"scikit_learn":"{\"_estimator_type\": \"regressor\"}"},"feature_names":["temperature_2m_mean","precipitation_sum","wind_speed_10m_max","wind_direction_10m_dominant"],"feature_types":["float","float","float","float"],"gradient_booster":{"model":{"gbtree_model_param":{"num_parallel_tree":"1","num_trees":"100"},"iteration_indptr":[0,1,2,3,4,5,6,7,8,9,10,11,12,13,14,15,16,17,18,19,20,21,22,23,24,25,26,27,28,29,30,31,32,33,34,35,36,37,38,39,40,41,42,43,44,45,46,47,48,49,50,51,52,53,54,55,56,57,58,59,60,61,62,63,64,65,66,67,68,69,70,71,72,73,74,75,76,77,78,79,80,81,82,83,84,85,86,87,88,89,90,91,92,93,94,95,96,97,98,99,100],"tree_info":[0,0,0,0,0,0,0,0,0,0,0,0,0,0,0,0,0,0,0,0,0,0,0,0,0,0,0,0,0,0,0,0,0,0,0,0,0,0,0,0,0,0,0,0,0,0,0,0,0,0,0,0,0,0,0,0,0,0,0,0,0,0,0,0,0,0,0,0,0,0,0,0,0,0,0,0,0,0,0,0,0,0,0,0,0,0,0,0,0,0,0,0,0,0,0,0,0,0,0,0],"trees":[{"base_weights":[8.1694594E-7,8.802276E0,-1.0961035E1,2.423734E1,2.7929993E0,-6.565934E0,-1.6845886E1,2.6609154E1,2.6103432E0,4.9931345E0,-8.629103E0,-8.899631E-1,-1.3974169E1,-9.733347E0,-2.0082603E1,3.471308E1,2.0777275E1,-4.9858146E0,2.846786E1,7.348321E0,-6.009155E0,-6.6211677E0,-2.6596306E1,6.6811247E0,-6.919973E0,-1.797703E1,-1.0176971E1,-3.6118515E0,-1.7758566E1,-1.7923306E1,-2.468055E1,4.4694687E1,3.1339087E1,2.9035019E1,1.9249256E1,3.649522E0,-1.3076305E1,3.487853E1,-1.9992303E0,1.7001732E1,4.6044397E0,-1.2811894E0,-9.545423E0,-9.299836E0,7.0169053E0,-7.6641006E0,-8.372808E0,1.1302961E1,2.6260428E0,-1.0218699E1,-2.3879707E0,-1.8671913E1,1.8158674E0,-7.9794126E0,-1.8507105E1,-6.8246202E0,6.4279747E0,-1.2721717E1,-2.2447206E1,-1.6443819E1,-2.3219175E1,-2.4900635E1,-2.9616342E0,1.0723698E1,1.6201109E1,1.0572126E1,7.1358137E0,5.124143E0,9.763623E0,5.986727E0,1.4260722E0,-1.0373957E0,3.3135586E0,-4.838026E0,4.4007697E0,1.193436E1,4.5383663E0,3.084605E0,7.5818043E0,2.3806293E0,-6.643587E-2,-4.232307E0,-3.7491468E-3,-9.8324436E-1,-3.8918002E0,-1.5557095E0,-4.9995975E0,3.476977E0,-2.083961E0,-2.2442265E-1,-3.2244227E0,7.843957E0,2.3918645E0,-5.785259E-1,1.8245164E0,-1.7103398E0,-3.7181172E0,1.808302E-1,-2.9065673E0,-1.5695015E0,-5.9399805E0,8.90077E0,-3.724038E0,8.6240786E-1,-3.055229E0,1.313366E0,-6.061663E0,1.7354577E0,-2.7195482E0,2.8806102E-1,5.182868E0,-5.0988736E0,1.3101407E0,-7.1031256E0,-1.9190763E0,-3.8388565E0,-5.5687943E0,-7.9732914E0,-5.394194E0,-6.909357E0,-8.308348E0],"categories":[],"categories_nodes":[],"categories_segments":[],"categories_sizes":[],"default_left":[0,0,0,0,0,0,0,0,0,0,0,0,0,0,0,0,0,0,0,0,0,0,0,0,0,0,0,0,0,0,0,0,0,0,0,0,0,0,0,0,0,0,0,0,0,0,0,0,0,0,0,0,0,0,0,0,0,0,0,0,0,0,0,0,0,0,0,0,0,0,0,0,0,0,0,0,0,0,0,0,0,0,0,0,0,0,0,0,0,0,0,0,0,0,0,0,0,0,0,0,0,0,0,0,0,0,0,0,0,0,0,0,0,0,0,0,0,0,0,0,0],"id":0,"left_children":[1,3,5,7,9,11,13,15,17,19,21,23,25,27,29,31,33,35,37,39,41,43,45,47,49,51,53,55,57,59,61,63,65,67,69,71,73,75,-1,77,79,81,83,85,87,89,-1,91,93,95,97,99,101,103,105,107,109,111,113,115,117,119,-1,-1,-1,-1,-1,-1,-1,-1,-1,-1,-1,-1,-1,-1,-1,-1,-1,-1,-1,-1,-1,-1,-1,-1,-1,-1,-1,-1,-1,-1,-1,-1,-1,-1,-1,-1,-1,-1,-1,-1,-1,-1,-1,-1,-1,-1,-1,-1,-1,-1,-1,-1,-1,-1,-1,-1,-1,-1,-1],"loss_changes":[3.7628E5,2.0055828E5,4.4816062E4,3.1015406E4,3.9195887E4,4.18683E4,1.6886312E4,2.5083344E4,1.2123419E4,3.391172E4,8.915299E3,2.584059E4,6.383297E3,1.143142E4,4.611172E3,6.2441875E3,3.4788594E3,3.4011992E3,3.385505E3,2.844909E4,3.8499404E3,8.394522E3,4.0757617E2,4.674541E3,4.684798E3,2.9084375E3,3.9528594E3,4.3661245E3,2.0996504E3,2.3605E3,2.7564062E2,2.6514688E3,4.259547E3,1.4584336E3,2.7009922E3,1.2997494E3,2.352475E3,5.6016504E2,0E0,1.29678125E4,1.3504762E4,1.6271119E3,2.7930752E3,5.701383E3,2.5070024E3,5.5946167E1,0E0,5.574877E3,2.1364604E3,1.7176426E3,2.9316152E3,2.958914E3,3.5389746E3,4.3127217E3,1.8764199E3,2.93415E3,1.9408317E3,3.7996104E3,8.5527344E2,1.9033203E3,8.2402734E2,1.8217188E2,0E0,0E0,0E0,0E0,0E0,0E0,0E0,0E0,0E0,0E0,0E0,0E0,0E0,0E0,0E0,0E0,0E0,0E0,0E0,0E0,0E0,0E0,0E0,0E0,0E0,0E0,0E0,0E0,0E0,0E0,0E0,0E0,0E0,0E0,0E0,0E0,0E0,0E0,0E0,0E0,0E0,0E0,0E0,0E0,0E0,0E0,0E0,0E0,0E0,0E0,0E0,0E0,0E0,0E0,0E0,0E0,0E0,0E0,0E0],"parents":[2147483647,0,0,1,1,2,2,3,3,4,4,5,5,6,6,7,7,8,8,9,9,10,10,11,11,12,12,13,13,14,14,15,15,16,16,17,17,18,18,19,19,20,20,21,21,22,22,23,23,24,24,25,25,26,26,27,27,28,28,29,29,30,30,31,31,32,32,33,33,34,34,35,35,36,36,37,37,39,39,40,40,41,41,42,42,43,43,44,44,45,45,47,47,48,48,49,49,50,50,51,51,52,52,53,53,54,54,55,55,56,56,57,57,58,58,59,59,60,60,61,61],"right_children":[2,4,6,8,10,12,14,16,18,20,22,24,26,28,30,32,34,36,38,40,42,44,46,48,50,52,54,56,58,60,62,64,66,68,70,72,74,76,-1,78,80,82,84,86,88,90,-1,92,94,96,98,100,102,104,106,108,110,112,114,116,118,120,-1,-1,-1,-1,-1,-1,-1,-1,-1,-1,-1,-1,-1,-1,-1,-1,-1,-1,-1,-1,-1,-1,-1,-1,-1,-1,-1,-1,-1,-1,-1,-1,-1,-1,-1,-1,-1,-1,-1,-1,-1,-1,-1,-1,-1,-1,-1,-1,-1,-1,-1,-1,-1,-1,-1,-1,-1,-1,-1],"split_conditions":[2.4778664E1,1.6981165E1,1.9493261E1,8.900001E0,7.6E0,2.3999999E0,2.6886995E1,1.1966953E1,2.6006363E2,3.6E1,4.58E1,2.7862E1,2.3479248E2,1.4000001E0,3.0978828E1,9.19939E0,2.101737E1,2.29745E1,2.86E1,1.5514083E1,3.928456E1,4.877307E1,2.7186861E1,1.3138765E1,2.5337543E2,1.879255E1,1.5E1,2.1964111E2,8.000001E0,2.9E0,2.5337543E2,2.481443E2,2.1914083E1,1.2849528E1,5.3E0,1.9747414E1,1.6548256E1,1.484318E1,-1.9992303E0,4.4621807E1,2.7103003E1,3.685244E1,1.7503666E1,3.1151962E1,2.362033E1,2.418117E1,-8.372808E0,2.5553665E1,2.2471373E2,1E-1,3.0546097E2,1.420677E1,7.5E0,2.6335337E1,6.9899354E0,3.893466E1,3E-1,2.438842E2,2.7997192E2,2.2548546E2,9.8E0,4E-1,-2.9616342E0,1.0723698E1,1.6201109E1,1.0572126E1,7.1358137E0,5.124143E0,9.763623E0,5.986727E0,1.4260722E0,-1.0373957E0,3.3135586E0,-4.838026E0,4.4007697E0,1.193436E1,4.5383663E0,3.084605E0,7.5818043E0,2.3806293E0,-6.643587E-2,-4.232307E0,-3.7491468E-3,-9.8324436E-1,-3.8918002E0,-1.5557095E0,-4.9995975E0,3.476977E0,-2.083961E0,-2.2442265E-1,-3.2244227E0,7.843957E0,2.3918645E0,-5.785259E-1,1.8245164E0,-1.7103398E0,-3.7181172E0,1.808302E-1,-2.9065673E0,-1.5695015E0,-5.9399805E0,8.90077E0,-3.724038E0,8.6240786E-1,-3.055229E0,1.313366E0,-6.061663E0,1.7354577E0,-2.7195482E0,2.8806102E-1,5.182868E0,-5.0988736E0,1.3101407E0,-7.1031256E0,-1.9190763E0,-3.8388565E0,-5.5687943E0,-7.9732914E0,-5.394194E0,-6.909357E0,-8.308348E0],"split_indices":[0,2,2,1,1,1,0,2,3,2,1,0,3,1,2,2,3,0,1,0,2,3,3,2,3,2,1,3,1,1,3,3,0,2,1,0,2,2,0,3,2,3,0,2,0,0,0,0,3,1,3,3,1,0,2,3,1,3,3,3,1,1,0,0,0,0,0,0,0,0,0,0,0,0,0,0,0,0,0,0,0,0,0,0,0,0,0,0,0,0,0,0,0,0,0,0,0,0,0,0,0,0,0,0,0,0,0,0,0,0,0,0,0,0,0,0,0,0,0,0,0],"split_type":[0,0,0,0,0,0,0,0,0,0,0,0,0,0,0,0,0,0,0,0,0,0,0,0,0,0,0,0,0,0,0,0,0,0,0,0,0,0,0,0,0,0,0,0,0,0,0,0,0,0,0,0,0,0,0,0,0,0,0,0,0,0,0,0,0,0,0,0,0,0,0,0,0,0,0,0,0,0,0,0,0,0,0,0,0,0,0,0,0,0,0,0,0,0,0,0,0,0,0,0,0,0,0,0,0,0,0,0,0,0,0,0,0,0,0,0,0,0,0,0,0],"sum_hessian":[3.898E3,2.162E3,1.736E3,6.05E2,1.557E3,9.95E2,7.41E2,5.45E2,6E1,1.306E3,2.51E2,5.64E2,4.31E2,2.33E2,5.08E2,2.26E2,3.19E2,4.7E1,1.3E1,1.076E3,2.3E2,2.27E2,2.4E1,2.5E2,3.14E2,2.08E2,2.23E2,1.33E2,1E2,3.49E2,1.59E2,5.4E1,1.72E2,4.7E1,2.72E2,2.3E1,2.4E1,1.1E1,2E0,2.37E2,8.39E2,9.9E1,1.31E2,1.9E2,3.7E1,2E0,2.2E1,1.16E2,1.34E2,1.81E2,1.33E2,2.01E2,7E0,1.78E2,4.5E1,1.01E2,3.2E1,5E1,5E1,2.76E2,7.3E1,1.56E2,3E0,3E1,2.4E1,1.11E2,6.1E1,1.2E1,3.5E1,2.59E2,1.3E1,1.2E1,1.1E1,2.2E1,2E0,8E0,3E0,1.32E2,1.05E2,4.96E2,3.43E2,8E0,9.1E1,4.7E1,8.4E1,1.23E2,6.7E1,2.8E1,9E0,1E0,1E0,2E1,9.6E1,5.8E1,7.6E1,6E1,1.21E2,9.5E1,3.8E1,1.6E1,1.85E2,2E0,5E0,3E1,1.48E2,3E0,4.2E1,1.5E1,8.6E1,2.2E1,1E1,4E1,1E1,4.6E1,4E0,1.04E2,1.72E2,4.2E1,3.1E1,9.9E1,5.7E1],"tree_param":{"num_deleted":"0","num_feature":"4","num_nodes":"121","size_leaf_vector":"1"}},{"base_weights":[3.8235448E-3,5.834343E0,-8.228137E0,1.616641E1,1.7295442E0,-4.546701E0,-1.22818575E1,1.8346071E1,-2.636165E-1,5.1453357E0,-3.0151966E0,-6.663779E-1,-9.496747E0,-7.7827644E0,-1.3796737E1,2.3970358E1,1.424974E1,-8.591521E0,1.1715985E1,7.038922E0,-3.4110146E0,-1.4868051E0,-1.1443581E1,3.886672E0,-4.7814217E0,-1.2724902E1,-6.4525995E0,-3.672759E0,-1.5641241E1,-1.2378135E1,-1.7390005E1,3.0662655E1,2.1718317E1,1.6263418E1,9.162058E0,2.698248E-1,-1.541832E1,1.915836E1,-6.350497E-1,1.5516907E1,4.805147E0,1.2983549E0,-8.301871E0,-8.792786E-3,-1.1017977E1,-7.989195E0,-1.9074236E1,6.0966134E0,-1.3703473E0,-1.1924388E0,-8.112763E0,6.058679E0,-1.3186226E1,4.508634E0,-8.026589E0,-2.3670142E0,-1.6315332E1,-1.8322317E1,-9.715606E0,-8.162754E0,-1.3209769E1,-4.591532E0,-1.7522951E1,6.939109E0,1.1713062E1,7.0517173E0,3.0063174E0,4.380391E0,6.458475E0,1.2154925E0,3.80317E0,1.3094343E0,-2.5630882E0,-5.4150953E0,-2.2616068E-1,6.986791E0,6.322994E-1,-1.1899381E0,5.9012814E0,8.100036E-1,5.384203E0,6.387268E-1,2.566752E0,-3.0344388E0,8.1263083E-1,-3.7881896E0,-9.360252E-1,-4.237265E-1,2.201612E0,-1.5328228E0,-4.6402698E0,-1.3879348E0,-4.318536E0,-1.9543458E0,-5.908321E0,1.6683917E0,9.677189E0,2.7590176E-1,-2.6611173E0,-1.1980643E0,8.7630856E-1,-2.6733584E0,2.1569543E0,2.1466981E-1,2.8146698E0,-4.0371804E0,5.4986143E-1,3.2914817E0,-1.8848953E0,-1.8487085E0,-4.438345E0,-1.5761623E0,9.151966E-1,-5.5911107E0,1.3835095E0,-7.1406837E0,-4.2435346E0,-1.5156734E-1,-4.378238E0,1.5058081E0,-2.9048924E0,-3.6038167E0,-5.126481E0,-4.078171E0,2.0119812E0,-5.380188E-1,-5.2835155E0],"categories":[],"categories_nodes":[],"categories_segments":[],"categories_sizes":[],"default_left":[0,0,0,0,0,0,0,0,0,0,0,0,0,0,0,0,0,0,0,0,0,0,0,0,0,0,0,0,0,0,0,0,0,0,0,0,0,0,0,0,0,0,0,0,0,0,0,0,0,0,0,0,0,0,0,0,0,0,0,0,0,0,0,0,0,0,0,0,0,0,0,0,0,0,0,0,0,0,0,0,0,0,0,0,0,0,0,0,0,0,0,0,0,0,0,0,0,0,0,0,0,0,0,0,0,0,0,0,0,0,0,0,0,0,0,0,0,0,0,0,0,0,0,0,0,0,0],"id":1,"left_children":[1,3,5,7,9,11,13,15,17,19,21,23,25,27,29,31,33,35,37,39,41,43,45,47,49,51,53,55,57,59,61,63,65,67,69,71,73,75,77,79,81,83,85,87,89,91,93,95,97,99,101,103,105,107,109,111,113,115,117,119,121,123,125,-1,-1,-1,-1,-1,-1,-1,-1,-1,-1,-1,-1,-1,-1,-1,-1,-1,-1,-1,-1,-1,-1,-1,-1,-1,-1,-1,-1,-1,-1,-1,-1,-1,-1,-1,-1,-1,-1,-1,-1,-1,-1,-1,-1,-1,-1,-1,-1,-1,-1,-1,-1,-1,-1,-1,-1,-1,-1,-1,-1,-1,-1,-1,-1],"loss_changes":[1.8718677E5,9.67965E4,2.4075484E4,2.3246734E4,2.6514037E4,1.6301074E4,5.1338125E3,1.2859734E4,7.782562E3,1.5432287E4,8.807066E3,8.955655E3,3.5833555E3,6.273034E3,2.7106484E3,2.9511719E3,3.2728125E3,2.786913E3,2.9536387E3,1.4678066E4,3.9954624E3,8.1845596E3,2.615331E3,2.6455732E3,2.991314E3,1.6396465E3,3.383245E3,2.1074185E3,8.864238E2,1.3470234E3,1.9178516E2,2.758293E3,3.5905703E3,1.7683359E3,1.6911455E3,7.951957E2,9.899092E2,1.3596235E3,9.574424E2,4.9979453E3,6.1846934E3,1.4600559E3,1.8657446E3,5.2081987E3,1.9716436E3,1.5274722E3,1.20953125E2,2.0612505E3,1.1760747E3,1.4173821E3,1.6524229E3,8.207703E1,7.4112695E2,1.8125825E3,2.053704E3,1.8771941E3,6.6898413E2,6.934033E2,1.0260867E3,1.4714229E3,1.3964727E3,3.9629895E2,1.8901953E2,0E0,0E0,0E0,0E0,0E0,0E0,0E0,0E0,0E0,0E0,0E0,0E0,0E0,0E0,0E0,0E0,0E0,0E0,0E0,0E0,0E0,0E0,0E0,0E0,0E0,0E0,0E0,0E0,0E0,0E0,0E0,0E0,0E0,0E0,0E0,0E0,0E0,0E0,0E0,0E0,0E0,0E0,0E0,0E0,0E0,0E0,0E0,0E0,0E0,0E0,0E0,0E0,0E0,0E0,0E0,0E0,0E0,0E0,0E0,0E0,0E0,0E0,0E0,0E0],"parents":[2147483647,0,0,1,1,2,2,3,3,4,4,5,5,6,6,7,7,8,8,9,9,10,10,11,11,12,12,13,13,14,14,15,15,16,16,17,17,18,18,19,19,20,20,21,21,22,22,23,23,24,24,25,25,26,26,27,27,28,28,29,29,30,30,31,31,32,32,33,33,34,34,35,35,36,36,37,37,38,38,39,39,40,40,41,41,42,42,43,43,44,44,45,45,46,46,47,47,48,48,49,49,50,50,51,51,52,52,53,53,54,54,55,55,56,56,57,57,58,58,59,59,60,60,61,61,62,62],"right_children":[2,4,6,8,10,12,14,16,18,20,22,24,26,28,30,32,34,36,38,40,42,44,46,48,50,52,54,56,58,60,62,64,66,68,70,72,74,76,78,80,82,84,86,88,90,92,94,96,98,100,102,104,106,108,110,112,114,116,118,120,122,124,126,-1,-1,-1,-1,-1,-1,-1,-1,-1,-1,-1,-1,-1,-1,-1,-1,-1,-1,-1,-1,-1,-1,-1,-1,-1,-1,-1,-1,-1,-1,-1,-1,-1,-1,-1,-1,-1,-1,-1,-1,-1,-1,-1,-1,-1,-1,-1,-1,-1,-1,-1,-1,-1,-1,-1,-1,-1,-1,-1,-1,-1,-1,-1,-1],"split_conditions":[2.5295334E1,1.6981165E1,1.8218275E1,8.900001E0,8E-1,2.4E0,2.6886995E1,1.1966953E1,2.3219614E2,3.6E1,2.06E1,2.8120752E1,2.3479248E2,3E0,3.0978828E1,9.19939E0,2.3137E1,2.2905748E1,2.4393248E1,1.5514083E1,1.8853666E1,3.772965E1,4.2600002E1,1.5077082E1,4E-1,6.3932667E0,2.6224915E1,3.772965E1,2.492743E2,1.3642021E2,2.759062E1,8.707237E0,7E-1,1.5629971E1,1.3779114E1,1.4241629E1,1.5978484E1,2.86E1,4.2600002E1,4.0634422E1,4.4914276E1,3.8440403E1,4.4494682E1,4.877307E1,3.0000002E0,2.9407835E1,2.7186861E1,3.5128033E2,8E-1,2.6006363E2,2.3000002E0,3.5E0,2.9509916E1,2.8491418E2,1.46E1,2.6178665E1,4.716332E1,2.5661207E1,1.44E1,1.933639E1,2.9E0,2.7189085E1,2.6957832E1,6.939109E0,1.1713062E1,7.0517173E0,3.0063174E0,4.380391E0,6.458475E0,1.2154925E0,3.80317E0,1.3094343E0,-2.5630882E0,-5.4150953E0,-2.2616068E-1,6.986791E0,6.322994E-1,-1.1899381E0,5.9012814E0,8.100036E-1,5.384203E0,6.387268E-1,2.566752E0,-3.0344388E0,8.1263083E-1,-3.7881896E0,-9.360252E-1,-4.237265E-1,2.201612E0,-1.5328228E0,-4.6402698E0,-1.3879348E0,-4.318536E0,-1.9543458E0,-5.908321E0,1.6683917E0,9.677189E0,2.7590176E-1,-2.6611173E0,-1.1980643E0,8.7630856E-1,-2.6733584E0,2.1569543E0,2.1466981E-1,2.8146698E0,-4.0371804E0,5.4986143E-1,3.2914817E0,-1.8848953E0,-1.8487085E0,-4.438345E0,-1.5761623E0,9.151966E-1,-5.5911107E0,1.3835095E0,-7.1406837E0,-4.2435346E0,-1.5156734E-1,-4.378238E0,1.5058081E0,-2.9048924E0,-3.6038167E0,-5.126481E0,-4.078171E0,2.0119812E0,-5.380188E-1,-5.2835155E0],"split_indices":[0,2,2,1,1,1,0,2,3,2,1,0,3,1,2,2,0,0,0,0,0,2,1,2,1,3,0,2,3,3,3,2,1,2,2,2,2,1,1,3,3,3,3,3,1,2,3,3,1,3,1,1,0,3,1,0,3,2,1,2,1,0,0,0,0,0,0,0,0,0,0,0,0,0,0,0,0,0,0,0,0,0,0,0,0,0,0,0,0,0,0,0,0,0,0,0,0,0,0,0,0,0,0,0,0,0,0,0,0,0,0,0,0,0,0,0,0,0,0,0,0,0,0,0,0,0,0],"split_type":[0,0,0,0,0,0,0,0,0,0,0,0,0,0,0,0,0,0,0,0,0,0,0,0,0,0,0,0,0,0,0,0,0,0,0,0,0,0,0,0,0,0,0,0,0,0,0,0,0,0,0,0,0,0,0,0,0,0,0,0,0,0,0,0,0,0,0,0,0,0,0,0,0,0,0,0,0,0,0,0,0,0,0,0,0,0,0,0,0,0,0,0,0,0,0,0,0,0,0,0,0,0,0,0,0,0,0,0,0,0,0,0,0,0,0,0,0,0,0,0,0,0,0,0,0,0,0],"sum_hessian":[3.898E3,2.282E3,1.616E3,6.48E2,1.634E3,8.48E2,7.68E2,5.72E2,7.6E1,9.5E2,6.84E2,4.76E2,3.72E2,1.95E2,5.73E2,2.39E2,3.33E2,4.5E1,3.1E1,7.78E2,1.72E2,5.8E2,1.04E2,2.26E2,2.5E2,1.79E2,1.93E2,1.29E2,6.6E1,4.14E2,1.59E2,5.7E1,1.82E2,2.37E2,9.6E1,2E1,2.5E1,1.9E1,1.2E1,1.61E2,6.17E2,8.8E1,8.4E1,5.03E2,7.7E1,7.3E1,3.1E1,1.59E2,6.7E1,1.21E2,1.29E2,4E0,1.75E2,2.4E1,1.69E2,1.18E2,1.1E1,4.4E1,2.2E1,7E1,3.44E2,2E0,1.57E2,3.2E1,2.5E1,1.57E2,2.5E1,1.83E2,5.4E1,4E1,5.6E1,1.4E1,6E0,2.1E1,4E0,1.5E1,4E0,1.1E1,1E0,2.6E1,1.35E2,3.61E2,2.56E2,9E0,7.9E1,4.5E1,3.9E1,4.23E2,8E1,3.4E1,4.3E1,4.9E1,2.4E1,2E0,2.9E1,1.57E2,2E0,5.2E1,1.5E1,7.2E1,4.9E1,1.23E2,6E0,2E0,2E0,1.72E2,3E0,1.5E1,9E0,1.34E2,3.5E1,7.7E1,4.1E1,1E1,1E0,1.7E1,2.7E1,8E0,1.4E1,7E0,6.3E1,2.66E2,7.8E1,1E0,1E0,1E0,1.56E2],"tree_param":{"num_deleted":"0","num_feature":"4","num_nodes":"127","size_leaf_vector":"1"}},{"base_weights":[2.2856945E-3,4.4160986E0,-5.4940176E0,1.1943289E1,1.2941018E0,-2.773239E0,-7.9865055E0,1.4356577E1,4.4566965E0,4.511215E0,-1.4317218E0,-2.4434024E-1,-7.1875725E0,-4.840174E0,-9.42268E0,1.9307785E1,1.2062523E1,1.017446E1,-2.900113E0,7.984669E0,1.0348128E0,1.0436965E0,-4.4755654E0,3.2725227E0,-3.8815382E0,-6.352664E0,-1.5838228E1,-1.9593321E0,-1.1983253E1,-8.171983E0,-1.1939194E1,1.3940684E1,2.5748512E1,1.1654761E1,4.2381363E1,2.9574274E1,7.589997E0,-9.445714E0,6.4540157E0,8.838817E0,-5.8585434E0,1.8679148E1,-5.47658E-1,3.368911E0,-1.0327462E1,6.4101887E0,-5.483978E0,2.8772166E0,8.652326E0,-6.5652533E0,-1.0416994E0,-8.642514E0,-4.2532563E0,-1.6997705E1,-1.2829996E0,-4.379288E0,5.4338546E0,-7.256636E0,-1.0147107E1,-5.9091096E0,-9.595274E0,-1.265378E1,-5.7655463E0,8.370283E0,8.6676604E-1,6.966835E0,1.134687E1,7.2547364E0,3.2924886E0,1.7204098E1,-3.7732604E-1,3.1006396E-1,9.789188E0,3.2247121E0,2.210955E-1,-4.467699E0,-1.9155176E0,2.471175E0,-3.523928E0,-5.515924E-1,3.05665E0,-4.2905667E-1,-5.0073195E0,6.4237237E0,3.8310245E-1,-1.1202035E0,1.8401182E0,8.138447E-1,8.231631E0,-4.2359385E0,-1.9348224E-1,-1.4283228E0,4.0053005E0,7.1869683E-1,-1.9179215E0,2.641703E-1,1.6406137E0,-1.4776671E0,-3.3729064E0,8.01263E-2,-3.7919931E0,-2.6846404E0,4.7221518E0,-8.001897E-1,-3.8062997E0,-1.4278485E0,-5.1968603E0,-4.9950144E-1,-7.7848434E-2,-8.334878E-1,-4.1795244E0,4.1834807E0,-1.521007E-1,-3.7558646E0,-1.6924452E0,-1.0631585E0,-2.837113E0,-3.0366948E0,-4.8637635E-1,-3.6885786E0,-6.33634E0,1.5392151E-1,-2.2614334E0],"categories":[],"categories_nodes":[],"categories_segments":[],"categories_sizes":[],"default_left":[0,0,0,0,0,0,0,0,0,0,0,0,0,0,0,0,0,0,0,0,0,0,0,0,0,0,0,0,0,0,0,0,0,0,0,0,0,0,0,0,0,0,0,0,0,0,0,0,0,0,0,0,0,0,0,0,0,0,0,0,0,0,0,0,0,0,0,0,0,0,0,0,0,0,0,0,0,0,0,0,0,0,0,0,0,0,0,0,0,0,0,0,0,0,0,0,0,0,0,0,0,0,0,0,0,0,0,0,0,0,0,0,0,0,0,0,0,0,0,0,0,0,0],"id":2,"left_children":[1,3,5,7,9,11,13,15,17,19,21,23,25,27,29,31,33,35,37,39,41,43,45,47,49,51,53,55,57,59,61,63,65,67,69,71,73,75,77,79,81,83,85,87,89,91,93,95,-1,97,99,101,103,105,107,109,111,-1,113,115,117,119,121,-1,-1,-1,-1,-1,-1,-1,-1,-1,-1,-1,-1,-1,-1,-1,-1,-1,-1,-1,-1,-1,-1,-1,-1,-1,-1,-1,-1,-1,-1,-1,-1,-1,-1,-1,-1,-1,-1,-1,-1,-1,-1,-1,-1,-1,-1,-1,-1,-1,-1,-1,-1,-1,-1,-1,-1,-1,-1,-1,-1],"loss_changes":[9.461265E4,5.081475E4,1.1757324E4,1.139068E4,1.3423463E4,9.286194E3,4.0483203E3,5.207742E3,6.5915674E3,8.468476E3,6.2510093E3,6.792212E3,2.0878057E3,5.8618516E3,1.8569688E3,4.826254E3,3.585793E3,4.1876855E3,4.2857217E3,4.2020566E3,9.838648E3,1.2144488E4,4.1187183E3,2.646019E3,1.9823252E3,1.2996797E3,4.1697998E2,3.6914895E3,1.5922666E3,1.2895625E3,8.2700977E2,1.2879019E4,1.1649258E3,2.5194414E3,2.684474E3,8.3858105E2,1.7023452E3,5.8839014E2,1.037972E3,4.7900137E3,9.835037E2,1.3520293E3,6.9206216E3,5.9423623E3,2.855001E3,2.5447705E3,2.4580107E3,1.3767241E3,0E0,9.7241797E2,1.9463744E3,1.1266592E3,1.9325208E3,1.3058105E1,7.4089193E-1,2.3317776E3,2.585789E3,0E0,7.096919E2,1.3427314E3,1.0552637E3,2.928125E2,2.598404E2,0E0,0E0,0E0,0E0,0E0,0E0,0E0,0E0,0E0,0E0,0E0,0E0,0E0,0E0,0E0,0E0,0E0,0E0,0E0,0E0,0E0,0E0,0E0,0E0,0E0,0E0,0E0,0E0,0E0,0E0,0E0,0E0,0E0,0E0,0E0,0E0,0E0,0E0,0E0,0E0,0E0,0E0,0E0,0E0,0E0,0E0,0E0,0E0,0E0,0E0,0E0,0E0,0E0,0E0,0E0,0E0,0E0,0E0,0E0,0E0],"parents":[2147483647,0,0,1,1,2,2,3,3,4,4,5,5,6,6,7,7,8,8,9,9,10,10,11,11,12,12,13,13,14,14,15,15,16,16,17,17,18,18,19,19,20,20,21,21,22,22,23,23,24,24,25,25,26,26,27,27,28,28,29,29,30,30,31,31,32,32,33,33,34,34,35,35,36,36,37,37,38,38,39,39,40,40,41,41,42,42,43,43,44,44,45,45,46,46,47,47,49,49,50,50,51,51,52,52,53,53,54,54,55,55,56,56,58,58,59,59,60,60,61,61,62,62],"right_children":[2,4,6,8,10,12,14,16,18,20,22,24,26,28,30,32,34,36,38,40,42,44,46,48,50,52,54,56,58,60,62,64,66,68,70,72,74,76,78,80,82,84,86,88,90,92,94,96,-1,98,100,102,104,106,108,110,112,-1,114,116,118,120,122,-1,-1,-1,-1,-1,-1,-1,-1,-1,-1,-1,-1,-1,-1,-1,-1,-1,-1,-1,-1,-1,-1,-1,-1,-1,-1,-1,-1,-1,-1,-1,-1,-1,-1,-1,-1,-1,-1,-1,-1,-1,-1,-1,-1,-1,-1,-1,-1,-1,-1,-1,-1,-1,-1,-1,-1,-1,-1,-1,-1],"split_conditions":[2.4778664E1,1.7581125E1,1.7208603E1,1.3E0,2E-1,3.5E0,2.6886995E1,1.1212135E1,2.2489082E1,1.8945333E1,2.8766228E1,2.8120752E1,2.79E1,4.8999996E0,2.9407835E1,2.5180496E2,1.7414476E1,1.23954315E1,2.2471373E2,4.1775517E1,2.9954494E1,2.29745E1,3.437203E1,3.5128033E2,2.5337543E2,2.3420631E2,1.5815435E1,2.3145573E2,1.859845E1,2.2618515E2,2.438842E2,6.032262E1,1.08955765E1,9.156898E0,1.76245E1,1.8000001E0,1.5077082E1,1.1298495E1,1.680857E1,3.685244E1,1.6947416E1,1E-1,4.782463E1,2.8521906E1,6.032262E1,3.1311722E1,1.3241166E1,2.4646416E2,8.652326E0,1.7E0,3.389792E2,1.680857E1,1.5408671E1,7.653705E0,2.4966164E1,3.6509396E1,2.1437386E1,-7.256636E0,2.4646416E2,7E-1,2.6006363E2,3.6699997E1,3.021642E1,8.370283E0,8.6676604E-1,6.966835E0,1.134687E1,7.2547364E0,3.2924886E0,1.7204098E1,-3.7732604E-1,3.1006396E-1,9.789188E0,3.2247121E0,2.210955E-1,-4.467699E0,-1.9155176E0,2.471175E0,-3.523928E0,-5.515924E-1,3.05665E0,-4.2905667E-1,-5.0073195E0,6.4237237E0,3.8310245E-1,-1.1202035E0,1.8401182E0,8.138447E-1,8.231631E0,-4.2359385E0,-1.9348224E-1,-1.4283228E0,4.0053005E0,7.1869683E-1,-1.9179215E0,2.641703E-1,1.6406137E0,-1.4776671E0,-3.3729064E0,8.01263E-2,-3.7919931E0,-2.6846404E0,4.7221518E0,-8.001897E-1,-3.8062997E0,-1.4278485E0,-5.1968603E0,-4.9950144E-1,-7.7848434E-2,-8.334878E-1,-4.1795244E0,4.1834807E0,-1.521007E-1,-3.7558646E0,-1.6924452E0,-1.0631585E0,-2.837113E0,-3.0366948E0,-4.8637635E-1,-3.6885786E0,-6.33634E0,1.5392151E-1,-2.2614334E0],"split_indices":[0,2,2,1,1,1,0,2,0,0,2,0,1,1,2,3,2,3,3,2,3,0,3,3,3,3,2,3,2,3,3,3,2,3,0,1,2,2,2,3,0,1,3,2,3,2,0,3,0,1,3,2,2,2,0,2,2,0,3,1,3,1,2,0,0,0,0,0,0,0,0,0,0,0,0,0,0,0,0,0,0,0,0,0,0,0,0,0,0,0,0,0,0,0,0,0,0,0,0,0,0,0,0,0,0,0,0,0,0,0,0,0,0,0,0,0,0,0,0,0,0,0,0],"split_type":[0,0,0,0,0,0,0,0,0,0,0,0,0,0,0,0,0,0,0,0,0,0,0,0,0,0,0,0,0,0,0,0,0,0,0,0,0,0,0,0,0,0,0,0,0,0,0,0,0,0,0,0,0,0,0,0,0,0,0,0,0,0,0,0,0,0,0,0,0,0,0,0,0,0,0,0,0,0,0,0,0,0,0,0,0,0,0,0,0,0,0,0,0,0,0,0,0,0,0,0,0,0,0,0,0,0,0,0,0,0,0,0,0,0,0,0,0,0,0,0,0,0,0],"sum_hessian":[3.898E3,2.162E3,1.736E3,6.33E2,1.529E3,8.31E2,9.05E2,4.78E2,1.55E2,7.01E2,8.28E2,5.29E2,3.02E2,2.85E2,6.2E2,1.49E2,3.29E2,8.7E1,6.8E1,3.5E2,3.51E2,4.57E2,3.71E2,2.69E2,2.6E2,2.77E2,2.5E1,2.04E2,8.1E1,4.17E2,2.03E2,8.3E1,6.6E1,3.26E2,3E0,9E0,7.8E1,4E1,2.8E1,3.3E2,2E1,2.8E1,3.23E2,3.8E2,7.7E1,3.1E1,3.4E2,2.66E2,3E0,1.33E2,1.27E2,1.31E2,1.46E2,2.3E1,2E0,1.54E2,5E1,9E0,7.2E1,1.63E2,2.54E2,1.81E2,2.2E1,3.6E1,4.7E1,5.7E1,9E0,1.5E1,3.11E2,2E0,1E0,1E0,8E0,5.3E1,2.5E1,1.3E1,2.7E1,2.6E1,2E0,3.7E1,2.93E2,1.5E1,5E0,2.4E1,4E0,2.19E2,1.04E2,3.71E2,9E0,5.5E1,2.2E1,1.2E1,1.9E1,3.5E1,3.05E2,1.51E2,1.15E2,1E2,3.3E1,1.15E2,1.2E1,1.3E2,1E0,1.24E2,2.2E1,1E0,2.2E1,1E0,1E0,1.33E2,2.1E1,2E1,3E1,4.6E1,2.6E1,9.9E1,6.4E1,2.38E2,1.6E1,1.76E2,5E0,5E0,1.7E1],"tree_param":{"num_deleted":"0","num_feature":"4","num_nodes":"123","size_leaf_vector":"1"}},{"base_weights":[9.449566E-3,2.9176702E0,-4.1711235E0,8.139661E0,8.378879E-1,-2.518204E0,-6.4676104E0,1.0043915E1,2.6478558E0,1.8832339E0,-4.592416E0,-1.0014685E0,-5.321334E0,-4.6718535E0,-7.7720857E0,1.2256276E1,6.89931E0,7.282415E0,-1.6519389E0,3.2207913E0,-2.269973E0,-3.5821257E0,-1.3051948E1,2.9736674E0,-2.3040264E0,-2.4748273E0,-6.733235E0,7.528061E-2,-7.332749E0,-1.7089195E1,-7.4532123E0,1.739962E1,1.0711343E1,5.168197E0,1.598844E1,2.1711918E1,5.206012E0,-9.190224E0,4.1450224E0,1.0007731E1,2.2115076E0,-1.4975578E0,-7.6596155E0,-4.6182923E0,5.084097E0,-3.3235016E0,-1.3672462E1,9.749055E0,1.2692436E0,-3.869699E0,1.7177361E-1,-1.666366E0,-1.0392803E1,-7.2136726E0,7.8268784E-1,2.0252544E1,-1.6069422E0,-6.938614E0,-1.5037859E1,-1.1244719E0,-5.388378E0,-8.045702E0,-3.4411159E0,2.995243E-1,6.2354417E0,2.4773061E0,4.2573075E0,-4.5467587E0,1.6855977E0,6.2144837E0,2.9901748E0,-2.3360597E-1,7.2892184E0,8.887172E-1,4.1051564E0,-1.9797304E0,-5.52178E0,3.7347944E0,6.9315577E-1,2.5451498E0,7.924492E0,9.649959E-1,-7.2623867E-1,-2.5658262E-1,-2.214448E0,-3.2419088E0,1.0471833E0,1.2092324E0,-1.6890975E0,7.453485E0,1.08569585E-1,3.1664085E-1,-1.8122166E0,-5.4102483E0,-2.94578E0,-5.7154113E-1,4.9789467E0,2.3562764E-1,6.011285E0,-3.5658429E0,-9.820753E-1,1.0532141E0,-4.9292907E-1,-1.5036104E0,2.1101238E-1,-4.219261E0,-4.1089556E-1,1.5486329E0,-2.226908E0,5.9129E0,-1.851301E0,7.0161257E0,-2.533865E-1,-1.083928E0,1.7189803E0,-1.3328172E0,-2.5920544E0,-6.2883067E0,-2.1875272E0,-2.5288205E0,-1.2367373E0,1.1779611E0,-2.425031E0],"categories":[],"categories_nodes":[],"categories_segments":[],"categories_sizes":[],"default_left":[0,0,0,0,0,0,0,0,0,0,0,0,0,0,0,0,0,0,0,0,0,0,0,0,0,0,0,0,0,0,0,0,0,0,0,0,0,0,0,0,0,0,0,0,0,0,0,0,0,0,0,0,0,0,0,0,0,0,0,0,0,0,0,0,0,0,0,0,0,0,0,0,0,0,0,0,0,0,0,0,0,0,0,0,0,0,0,0,0,0,0,0,0,0,0,0,0,0,0,0,0,0,0,0,0,0,0,0,0,0,0,0,0,0,0,0,0,0,0,0,0,0,0],"id":3,"left_children":[1,3,5,7,9,11,13,15,17,19,21,23,25,27,29,31,33,35,37,39,41,43,45,47,49,51,53,55,57,59,61,63,65,67,69,71,73,75,77,79,81,83,85,87,89,91,93,95,97,99,101,103,105,107,109,111,113,115,117,-1,-1,119,121,-1,-1,-1,-1,-1,-1,-1,-1,-1,-1,-1,-1,-1,-1,-1,-1,-1,-1,-1,-1,-1,-1,-1,-1,-1,-1,-1,-1,-1,-1,-1,-1,-1,-1,-1,-1,-1,-1,-1,-1,-1,-1,-1,-1,-1,-1,-1,-1,-1,-1,-1,-1,-1,-1,-1,-1,-1,-1,-1,-1],"loss_changes":[4.7416324E4,2.497257E4,6.057166E3,6.823258E3,9.352244E3,3.957168E3,1.5308359E3,3.2965469E3,3.3997307E3,7.678978E3,2.2266367E3,3.144625E3,1.2975449E3,3.587935E3,1.0194258E3,2.0703242E3,3.1114326E3,2.343808E3,3.9273176E3,7.1360645E3,1.3914746E3,2.1696167E3,1.2358594E2,1.7198458E3,1.7721301E3,6.868333E2,7.928291E2,3.528638E3,4.4836523E2,7.228711E1,8.637363E2,3.5326016E3,1.7696992E3,1.6598516E3,7.0422266E2,6.0040967E2,1.3480011E3,8.098196E2,7.481824E2,3.1513018E3,4.2495283E3,1.1123147E3,1.5113721E3,1.8958657E3,2.41719E3,4.207169E1,2.5988623E2,2.4256584E3,1.0829999E3,1.2991318E3,1.0844027E3,8.042903E2,3.1201282E2,5.6945703E2,1.9642013E3,5.487925E2,1.4337153E3,7.048262E2,2.1420874E2,0E0,0E0,4.559922E2,1.7418901E3,0E0,0E0,0E0,0E0,0E0,0E0,0E0,0E0,0E0,0E0,0E0,0E0,0E0,0E0,0E0,0E0,0E0,0E0,0E0,0E0,0E0,0E0,0E0,0E0,0E0,0E0,0E0,0E0,0E0,0E0,0E0,0E0,0E0,0E0,0E0,0E0,0E0,0E0,0E0,0E0,0E0,0E0,0E0,0E0,0E0,0E0,0E0,0E0,0E0,0E0,0E0,0E0,0E0,0E0,0E0,0E0,0E0,0E0,0E0,0E0],"parents":[2147483647,0,0,1,1,2,2,3,3,4,4,5,5,6,6,7,7,8,8,9,9,10,10,11,11,12,12,13,13,14,14,15,15,16,16,17,17,18,18,19,19,20,20,21,21,22,22,23,23,24,24,25,25,26,26,27,27,28,28,29,29,30,30,31,31,32,32,33,33,34,34,35,35,36,36,37,37,38,38,39,39,40,40,41,41,42,42,43,43,44,44,45,45,46,46,47,47,48,48,49,49,50,50,51,51,52,52,53,53,54,54,55,55,56,56,57,57,58,58,61,61,62,62],"right_children":[2,4,6,8,10,12,14,16,18,20,22,24,26,28,30,32,34,36,38,40,42,44,46,48,50,52,54,56,58,60,62,64,66,68,70,72,74,76,78,80,82,84,86,88,90,92,94,96,98,100,102,104,106,108,110,112,114,116,118,-1,-1,120,122,-1,-1,-1,-1,-1,-1,-1,-1,-1,-1,-1,-1,-1,-1,-1,-1,-1,-1,-1,-1,-1,-1,-1,-1,-1,-1,-1,-1,-1,-1,-1,-1,-1,-1,-1,-1,-1,-1,-1,-1,-1,-1,-1,-1,-1,-1,-1,-1,-1,-1,-1,-1,-1,-1,-1,-1,-1,-1,-1,-1],"split_conditions":[2.5391586E1,1.6981165E1,1.9493261E1,1.3E0,7.6E0,3.5E0,1E-1,1.3044722E1,2.2489082E1,3.3549606E1,4.58E1,2.6886995E1,1.1043261E1,2.8237001E1,1.9813087E1,1.8016165E1,1.6299694E1,1.23954315E1,1.1437235E2,1.4397834E1,4.484854E1,2.3858653E2,2.7186861E1,9.826088E0,2.5337543E2,2.4400002E1,1.8864824E1,3.8791367E1,3.971112E1,2.5960335E1,2.5072554E2,1.5772835E1,2.5799176E2,1.4507833E1,1.6595179E1,1.6347416E1,3.2822586E2,2.4639082E1,2.3412E1,3.249785E1,3.010685E1,2.3724495E1,4.920951E1,2.6541218E1,1.9441164E1,2.418117E1,4.0033257E1,7.9526596E0,3.5755762E2,9.19939E0,2.8558249E1,2.2471373E2,1.0105681E1,2.5505747E1,1.3642021E2,2.7956171E1,2.4286118E2,2.2618515E2,4.2548588E1,-1.1244719E0,-5.388378E0,3.0186996E1,2.4798225E1,2.995243E-1,6.2354417E0,2.4773061E0,4.2573075E0,-4.5467587E0,1.6855977E0,6.2144837E0,2.9901748E0,-2.3360597E-1,7.2892184E0,8.887172E-1,4.1051564E0,-1.9797304E0,-5.52178E0,3.7347944E0,6.9315577E-1,2.5451498E0,7.924492E0,9.649959E-1,-7.2623867E-1,-2.5658262E-1,-2.214448E0,-3.2419088E0,1.0471833E0,1.2092324E0,-1.6890975E0,7.453485E0,1.08569585E-1,3.1664085E-1,-1.8122166E0,-5.4102483E0,-2.94578E0,-5.7154113E-1,4.9789467E0,2.3562764E-1,6.011285E0,-3.5658429E0,-9.820753E-1,1.0532141E0,-4.9292907E-1,-1.5036104E0,2.1101238E-1,-4.219261E0,-4.1089556E-1,1.5486329E0,-2.226908E0,5.9129E0,-1.851301E0,7.0161257E0,-2.533865E-1,-1.083928E0,1.7189803E0,-1.3328172E0,-2.5920544E0,-6.2883067E0,-2.1875272E0,-2.5288205E0,-1.2367373E0,1.1779611E0,-2.425031E0],"split_indices":[0,2,2,1,1,1,1,2,0,2,1,0,2,0,2,0,2,3,3,0,2,3,3,2,3,1,2,3,2,0,3,0,3,0,2,0,3,0,0,2,2,0,2,3,0,0,3,2,3,2,0,3,2,0,3,0,3,3,2,0,0,0,2,0,0,0,0,0,0,0,0,0,0,0,0,0,0,0,0,0,0,0,0,0,0,0,0,0,0,0,0,0,0,0,0,0,0,0,0,0,0,0,0,0,0,0,0,0,0,0,0,0,0,0,0,0,0,0,0,0,0,0,0],"split_type":[0,0,0,0,0,0,0,0,0,0,0,0,0,0,0,0,0,0,0,0,0,0,0,0,0,0,0,0,0,0,0,0,0,0,0,0,0,0,0,0,0,0,0,0,0,0,0,0,0,0,0,0,0,0,0,0,0,0,0,0,0,0,0,0,0,0,0,0,0,0,0,0,0,0,0,0,0,0,0,0,0,0,0,0,0,0,0,0,0,0,0,0,0,0,0,0,0,0,0,0,0,0,0,0,0,0,0,0,0,0,0,0,0,0,0,0,0,0,0,0,0,0,0],"sum_hessian":[3.898E3,2.299E3,1.599E3,6.54E2,1.645E3,9.31E2,6.68E2,4.85E2,1.69E2,1.38E3,2.65E2,6.05E2,3.26E2,2.83E2,3.85E2,2.83E2,2.02E2,8.1E1,8.8E1,1.044E3,3.36E2,2.38E2,2.7E1,1.49E2,4.56E2,1.09E2,2.17E2,1.02E2,1.81E2,1.1E1,3.74E2,6.3E1,2.2E2,1.71E2,3.1E1,9E0,7.2E1,3.8E1,5E1,1.34E2,9.1E2,2.95E2,4.1E1,2.13E2,2.5E1,2E0,2.5E1,2.9E1,1.2E2,2.79E2,1.77E2,1E2,9E0,2.04E2,1.3E1,7E0,9.5E1,1.74E2,7E0,1E0,1E1,3.25E2,4.9E1,1.1E1,5.2E1,1.31E2,8.9E1,3E0,1.68E2,1.6E1,1.5E1,1E0,8E0,5.8E1,1.4E1,3.1E1,7E0,8E0,4.2E1,1.24E2,1E1,7.48E2,1.62E2,2.67E2,2.8E1,3.2E1,9E0,2.2E1,1.91E2,4E0,2.1E1,1E0,1E0,1E1,1.5E1,1.1E1,1.8E1,1.18E2,2E0,1.8E1,2.61E2,6.2E1,1.15E2,4.1E1,5.9E1,6E0,3E0,3E0,2.01E2,3E0,1E1,6E0,1E0,7.5E1,2E1,7.2E1,1.02E2,3E0,4E0,2.95E2,3E1,1.9E1,3E1],"tree_param":{"num_deleted":"0","num_feature":"4","num_nodes":"123","size_leaf_vector":"1"}},{"base_weights":[1.160587E-2,2.7816043E0,-2.3189647E0,5.9392467E0,4.7575685E-1,-5.7009107E-1,-3.8650594E0,6.5686336E0,-5.135457E0,-9.386795E-1,5.1925077E0,2.8396852E0,-2.2207725E0,-2.2248476E0,-5.07969E0,1.3185811E1,5.589965E0,-6.171912E0,5.448413E0,9.284992E0,-1.366227E0,6.6529517E0,-1.9870142E0,6.3694706E0,1.1260628E0,5.8492625E-1,-3.204226E0,9.764366E0,-2.3653915E0,-6.2295475E0,-3.0334458E0,1.1400514E1,3.0283203E1,3.349869E0,1.0299818E1,2.2579696E0,-9.057138E0,-1.5859364E0,1.1854665E1,9.922064E-1,-2.9049299E0,1.1185501E1,3.6761596E0,3.8789446E0,-8.340218E0,1.1135207E1,2.807735E0,8.1465906E-1,7.0138125E0,-2.5330074E0,4.7759447E0,-1.36386E0,-4.959522E0,6.04801E0,-2.8420062E0,-5.961421E0,-1.2928538E1,-1.4318453E0,-9.375307E0,7.1241255E0,2.6416225E0,1.1079918E1,4.3200254E0,1.374587E0,-3.7792972E-1,6.404118E0,2.7470765E0,-2.0225852E0,4.3218794E0,-3.0967808E0,1.7318718E0,2.9232168E0,-2.4200232E0,4.8299656E0,1.0356979E0,7.3123056E-1,-7.822057E-1,2.6208165E0,-9.387899E-1,7.9516892E0,1.8443108E0,1.8619792E0,-9.045565E-2,2.6485183E0,-8.829702E-1,-6.047216E0,-1.5207322E0,6.8151414E-1,4.399503E0,4.1161647E-1,4.167621E0,5.305421E-1,-1.0825351E0,-6.053491E-1,-3.6062524E0,3.9821002E0,-8.416784E-2,-1.3429427E0,2.4862964E-1,-2.5105577E0,-1.1154692E0,2.3094125E-1,4.3248477E0,-3.3260787E-1,-1.3711307E0,-2.060695E0,-1.3342241E0,-5.1697555E0,-2.102548E0,1.7689593E0,-9.79977E-1,-4.892815E0,-1.5810958E0],"categories":[],"categories_nodes":[],"categories_segments":[],"categories_sizes":[],"default_left":[0,0,0,0,0,0,0,0,0,0,0,0,0,0,0,0,0,0,0,0,0,0,0,0,0,0,0,0,0,0,0,0,0,0,0,0,0,0,0,0,0,0,0,0,0,0,0,0,0,0,0,0,0,0,0,0,0,0,0,0,0,0,0,0,0,0,0,0,0,0,0,0,0,0,0,0,0,0,0,0,0,0,0,0,0,0,0,0,0,0,0,0,0,0,0,0,0,0,0,0,0,0,0,0,0,0,0,0,0,0,0,0,0],"id":4,"left_children":[1,3,5,7,9,11,13,15,17,19,21,23,25,27,29,31,33,35,-1,37,39,41,43,45,47,49,51,-1,53,55,57,59,61,63,65,67,69,71,73,75,77,79,81,83,85,87,89,91,-1,93,95,97,99,101,103,105,107,109,111,-1,-1,-1,-1,-1,-1,-1,-1,-1,-1,-1,-1,-1,-1,-1,-1,-1,-1,-1,-1,-1,-1,-1,-1,-1,-1,-1,-1,-1,-1,-1,-1,-1,-1,-1,-1,-1,-1,-1,-1,-1,-1,-1,-1,-1,-1,-1,-1,-1,-1,-1,-1,-1,-1],"loss_changes":[2.5177135E4,1.2971989E4,5.724707E3,5.275381E3,6.8832354E3,5.606618E3,2.2279902E3,4.537217E3,1.1020814E3,3.4833435E3,2.5087178E3,1.9586619E3,1.8533477E3,2.4227974E3,1.4987168E3,2.4324336E3,6.527922E3,9.9333545E2,0E0,9.127124E2,2.7717544E3,2.6303877E3,1.5603241E3,1.7680103E3,1.5055012E3,2.298878E3,1.5987383E3,0E0,1.9379546E3,6.629531E2,2.3633442E3,2.4823125E3,3.13125E2,2.4081895E3,2.3296973E3,1.2997966E3,6.2259814E2,5.925953E2,8.7183154E2,1.577415E3,1.2340293E3,5.8570703E3,1.2197687E3,7.688367E2,6.709254E2,1.3745728E3,9.675801E2,9.2608545E2,0E0,4.6942328E2,3.2263818E3,1.6689613E3,1.0437012E3,1.1372915E3,1.3550762E3,5.163252E2,2.6142236E2,2.547053E3,1.2518662E3,0E0,0E0,0E0,0E0,0E0,0E0,0E0,0E0,0E0,0E0,0E0,0E0,0E0,0E0,0E0,0E0,0E0,0E0,0E0,0E0,0E0,0E0,0E0,0E0,0E0,0E0,0E0,0E0,0E0,0E0,0E0,0E0,0E0,0E0,0E0,0E0,0E0,0E0,0E0,0E0,0E0,0E0,0E0,0E0,0E0,0E0,0E0,0E0,0E0,0E0,0E0,0E0,0E0,0E0],"parents":[2147483647,0,0,1,1,2,2,3,3,4,4,5,5,6,6,7,7,8,8,9,9,10,10,11,11,12,12,13,13,14,14,15,15,16,16,17,17,19,19,20,20,21,21,22,22,23,23,24,24,25,25,26,26,28,28,29,29,30,30,31,31,32,32,33,33,34,34,35,35,36,36,37,37,38,38,39,39,40,40,41,41,42,42,43,43,44,44,45,45,46,46,47,47,49,49,50,50,51,51,52,52,53,53,54,54,55,55,56,56,57,57,58,58],"right_children":[2,4,6,8,10,12,14,16,18,20,22,24,26,28,30,32,34,36,-1,38,40,42,44,46,48,50,52,-1,54,56,58,60,62,64,66,68,70,72,74,76,78,80,82,84,86,88,90,92,-1,94,96,98,100,102,104,106,108,110,112,-1,-1,-1,-1,-1,-1,-1,-1,-1,-1,-1,-1,-1,-1,-1,-1,-1,-1,-1,-1,-1,-1,-1,-1,-1,-1,-1,-1,-1,-1,-1,-1,-1,-1,-1,-1,-1,-1,-1,-1,-1,-1,-1,-1,-1,-1,-1,-1,-1,-1,-1,-1,-1,-1],"split_conditions":[2.3137E1,2.3166218E1,1.7208603E1,2.06E1,4.661805E1,4E-1,1E-1,2.101737E1,2.290743E1,2.6541218E1,3.461995E1,2.5216583E1,1.024578E1,4.43262E0,2.3909564E2,1.9881649E1,2.2268791E2,1.4241629E1,5.448413E0,2.4184391E1,2E-1,1.584325E1,4.8094723E1,1.1966953E1,3.548056E2,2.481443E2,2.7956171E1,9.764366E0,2.3486998E1,2.3759167E2,1.3299999E1,1.024578E1,2.9E0,6.221483E1,9.19939E0,1.3324863E1,2.268075E1,2E-1,6.4E0,1.9672834E1,9.345332E0,4.782463E1,2.800837E1,2.0239084E1,1.23145E1,2.3870752E1,2.4912E1,2.943283E1,7.0138125E0,3.3899994E1,2.2E0,2.1867738E2,1.2E0,2.780403E1,2.6230639E1,2.8660158E1,1.5E0,2.5960335E1,2.3904108E1,7.1241255E0,2.6416225E0,1.1079918E1,4.3200254E0,1.374587E0,-3.7792972E-1,6.404118E0,2.7470765E0,-2.0225852E0,4.3218794E0,-3.0967808E0,1.7318718E0,2.9232168E0,-2.4200232E0,4.8299656E0,1.0356979E0,7.3123056E-1,-7.822057E-1,2.6208165E0,-9.387899E-1,7.9516892E0,1.8443108E0,1.8619792E0,-9.045565E-2,2.6485183E0,-8.829702E-1,-6.047216E0,-1.5207322E0,6.8151414E-1,4.399503E0,4.1161647E-1,4.167621E0,5.305421E-1,-1.0825351E0,-6.053491E-1,-3.6062524E0,3.9821002E0,-8.416784E-2,-1.3429427E0,2.4862964E-1,-2.5105577E0,-1.1154692E0,2.3094125E-1,4.3248477E0,-3.3260787E-1,-1.3711307E0,-2.060695E0,-1.3342241E0,-5.1697555E0,-2.102548E0,1.7689593E0,-9.79977E-1,-4.892815E0,-1.5810958E0],"split_indices":[0,2,2,1,3,1,1,3,2,3,2,0,2,3,3,2,3,2,0,2,1,0,3,2,3,3,0,0,0,3,1,2,1,3,2,2,0,1,1,0,0,3,2,0,0,0,0,0,0,1,1,3,1,2,2,2,1,0,2,0,0,0,0,0,0,0,0,0,0,0,0,0,0,0,0,0,0,0,0,0,0,0,0,0,0,0,0,0,0,0,0,0,0,0,0,0,0,0,0,0,0,0,0,0,0,0,0,0,0,0,0,0,0],"split_type":[0,0,0,0,0,0,0,0,0,0,0,0,0,0,0,0,0,0,0,0,0,0,0,0,0,0,0,0,0,0,0,0,0,0,0,0,0,0,0,0,0,0,0,0,0,0,0,0,0,0,0,0,0,0,0,0,0,0,0,0,0,0,0,0,0,0,0,0,0,0,0,0,0,0,0,0,0,0,0,0,0,0,0,0,0,0,0,0,0,0,0,0,0,0,0,0,0,0,0,0,0,0,0,0,0,0,0,0,0,0,0,0,0],"sum_hessian":[3.898E3,1.781E3,2.117E3,7.51E2,1.03E3,9.94E2,1.123E3,7.11E2,4E1,7.93E2,2.37E2,3.24E2,6.7E2,4.79E2,6.44E2,9E1,6.21E2,3.9E1,1E0,3.1E1,7.62E2,1.97E2,4E1,1.05E2,2.19E2,1.74E2,4.96E2,1E0,4.78E2,4.11E2,2.33E2,8.3E1,7E0,4.22E2,1.99E2,1E1,2.9E1,6E0,2.5E1,3.01E2,4.61E2,7.7E1,1.2E2,2.1E1,1.9E1,4.4E1,6.1E1,2.17E2,2E0,1E2,7.4E1,2.43E2,2.53E2,2.5E1,4.53E2,3.97E2,1.4E1,1.87E2,4.6E1,1.3E1,7E1,4E0,3E0,3.33E2,8.9E1,1.7E1,1.82E2,6E0,4E0,2.7E1,2E0,2E0,4E0,1.6E1,9E0,2.15E2,8.6E1,8E0,4.53E2,1.8E1,5.9E1,7.3E1,4.7E1,1.2E1,9E0,3E0,1.6E1,1.3E1,3.1E1,5.5E1,6E0,1.79E2,3.8E1,9.6E1,4E0,2.7E1,4.7E1,1E2,1.43E2,6.6E1,1.87E2,1.6E1,9E0,2.27E2,2.26E2,2.46E2,1.51E2,7E0,7E0,3.7E1,1.5E2,1.6E1,3E1],"tree_param":{"num_deleted":"0","num_feature":"4","num_nodes":"113","size_leaf_vector":"1"}},{"base_weights":[2.4234362E-2,1.7419375E0,-1.8909619E0,8.9730114E-1,6.1410327E0,-9.569529E-1,-3.2894132E0,5.2204657E0,-1.219192E-2,8.301739E0,1.4763094E0,3.440303E-1,-2.815032E0,-9.356761E0,-2.9740305E0,6.4070625E0,-2.4316242E0,1.6135257E0,-2.5099425E0,1.4281346E1,7.486955E0,8.83913E0,-5.5727625E-1,2.9111981E0,-1.0339892E0,9.957632E0,-2.9500947E0,-1.4164844E1,-1.6811221E0,-1.2181906E0,-3.6408572E0,1.3750839E1,5.9237514E0,-4.4175515E0,9.889211E0,3.3314047E0,-3.8255212E-1,-1.5554014E0,-7.4438767E0,3.1525705E1,9.713022E0,6.029813E0,1.0810742E1,4.292561E0,2.1005651E1,-2.3432844E0,4.5825324E0,8.571773E0,1.8402559E0,-5.0707877E-1,-3.9444613E0,-4.5072672E-1,3.9594753E0,-2.1060467E0,-5.024536E0,-2.9523616E0,-2.0361094E1,1.0214879E1,-5.5063624E0,1.1341656E0,-4.0326166E0,-1.1255835E1,-3.450053E0,2.9006221E0,9.488703E-1,-3.519099E0,-6.743712E-1,-2.607691E-1,3.6644237E0,-3.5902996E0,1.1081853E0,4.1552073E-1,-1.0144145E0,-1.8501375E0,-2.4951872E-1,-1.1302902E-1,-3.2739992E0,1.2611407E1,3.1514466E0,-1.0269846E0,3.846715E0,7.7593464E-1,2.8024817E0,5.2002726E0,1.4844159E0,6.3514466E0,2.5784314E-1,7.8752384E0,-7.8300935E-1,2.0881778E-1,-2.5365353E0,5.3996477E0,-8.634977E-1,-1.6455117E-1,3.3591466E0,-2.6659946E0,7.801588E-1,6.505871E-1,-4.093733E-1,-1.9687916E0,1.5213817E-1,2.0615335E0,-7.06761E-1,-1.1634502E0,-3.056709E0,-2.6579132E0,1.9940258E0,-6.4833446E0,-6.1655676E-1,4.3832126E0,-4.4589102E-1,-2.370103E0,1.2927079E0,-2.8549543E-1,2.300667E0,-1.8496547E0,-2.1637538E-1,-3.8014588E0,-8.354725E-1,6.120336E-1,-1.1160563E0],"categories":[],"categories_nodes":[],"categories_segments":[],"categories_sizes":[],"default_left":[0,0,0,0,0,0,0,0,0,0,0,0,0,0,0,0,0,0,0,0,0,0,0,0,0,0,0,0,0,0,0,0,0,0,0,0,0,0,0,0,0,0,0,0,0,0,0,0,0,0,0,0,0,0,0,0,0,0,0,0,0,0,0,0,0,0,0,0,0,0,0,0,0,0,0,0,0,0,0,0,0,0,0,0,0,0,0,0,0,0,0,0,0,0,0,0,0,0,0,0,0,0,0,0,0,0,0,0,0,0,0,0,0,0,0,0,0,0,0,0,0],"id":5,"left_children":[1,3,5,7,9,11,13,15,17,19,21,23,25,27,29,31,33,35,37,39,41,43,45,47,49,51,53,55,57,59,61,-1,63,65,67,69,71,73,75,77,79,81,83,85,87,89,91,93,95,97,99,-1,-1,101,103,105,107,109,111,113,115,117,119,-1,-1,-1,-1,-1,-1,-1,-1,-1,-1,-1,-1,-1,-1,-1,-1,-1,-1,-1,-1,-1,-1,-1,-1,-1,-1,-1,-1,-1,-1,-1,-1,-1,-1,-1,-1,-1,-1,-1,-1,-1,-1,-1,-1,-1,-1,-1,-1,-1,-1,-1,-1,-1,-1,-1,-1,-1,-1],"loss_changes":[1.2829985E4,7.633836E3,2.4054224E3,6.7865024E3,3.3239258E3,2.6769526E3,1.3843623E3,2.7395635E3,5.79858E3,9.9416797E2,1.5920562E3,2.30953E3,8.1602563E2,1.3047708E3,8.186665E2,4.683169E3,1.0468857E3,2.9673767E3,2.639951E3,1.7420137E3,9.0830176E2,1.1820983E3,7.818363E2,1.3663956E3,6.497621E2,2.0551764E2,7.8083765E2,1.4683442E3,7.3882275E2,1.2955774E3,7.00729E2,0E0,2.6369717E3,5.448128E2,1.6073212E2,2.6233833E3,2.130302E3,1.57345E3,2.2271187E3,6.632886E2,9.4249585E2,1.595165E3,2.2089438E3,1.0248456E3,8.117212E2,1.1761707E3,2.2539414E3,8.681333E2,1.5970981E3,8.3124194E2,7.609061E2,0E0,0E0,7.406362E2,7.3013916E2,5.6923615E2,2.7595215E2,2.2746155E2,3.1601694E2,1.4657339E3,6.241428E2,1.0861792E2,7.4616504E2,0E0,0E0,0E0,0E0,0E0,0E0,0E0,0E0,0E0,0E0,0E0,0E0,0E0,0E0,0E0,0E0,0E0,0E0,0E0,0E0,0E0,0E0,0E0,0E0,0E0,0E0,0E0,0E0,0E0,0E0,0E0,0E0,0E0,0E0,0E0,0E0,0E0,0E0,0E0,0E0,0E0,0E0,0E0,0E0,0E0,0E0,0E0,0E0,0E0,0E0,0E0,0E0,0E0,0E0,0E0,0E0,0E0,0E0],"parents":[2147483647,0,0,1,1,2,2,3,3,4,4,5,5,6,6,7,7,8,8,9,9,10,10,11,11,12,12,13,13,14,14,15,15,16,16,17,17,18,18,19,19,20,20,21,21,22,22,23,23,24,24,25,25,26,26,27,27,28,28,29,29,30,30,32,32,33,33,34,34,35,35,36,36,37,37,38,38,39,39,40,40,41,41,42,42,43,43,44,44,45,45,46,46,47,47,48,48,49,49,50,50,53,53,54,54,55,55,56,56,57,57,58,58,59,59,60,60,61,61,62,62],"right_children":[2,4,6,8,10,12,14,16,18,20,22,24,26,28,30,32,34,36,38,40,42,44,46,48,50,52,54,56,58,60,62,-1,64,66,68,70,72,74,76,78,80,82,84,86,88,90,92,94,96,98,100,-1,-1,102,104,106,108,110,112,114,116,118,120,-1,-1,-1,-1,-1,-1,-1,-1,-1,-1,-1,-1,-1,-1,-1,-1,-1,-1,-1,-1,-1,-1,-1,-1,-1,-1,-1,-1,-1,-1,-1,-1,-1,-1,-1,-1,-1,-1,-1,-1,-1,-1,-1,-1,-1,-1,-1,-1,-1,-1,-1,-1,-1,-1,-1,-1,-1,-1],"split_conditions":[2.4314081E1,1.9979898E2,2.0364674E1,3.1173424E1,3.1159348E2,2.4999998E0,2.4639082E1,1.02E1,7E-1,1.7503666E1,1.024578E1,2.683075E1,2.4443665E1,4.4370907E1,2.6335337E1,1.4507833E1,2.7103003E1,1.8945333E1,2.2091166E1,9.290511E0,1.5408671E1,9.726665E0,3.3999999E0,9.826088E0,1.8345877E1,6.3932667E0,1.3799999E1,2.4443665E1,2.2476227E1,1.3E0,2.6559914E1,1.3750839E1,1.938075E1,1.6714083E1,1.2687E1,9.726665E0,3.010685E1,3.553775E1,1.8345877E1,1.7439081E1,1.0587918E1,2.5799176E2,2.4983246E2,1.8016165E1,1.3099998E1,7E-1,1.9672834E1,7.653705E0,2.4443665E1,2.2618515E2,2.9141169E1,-4.5072672E-1,3.9594753E0,1.13098955E1,2.824395E2,1E-1,3.461995E1,8E-1,3.928456E1,5.2689434E1,3.0555498E1,2.1431784E2,3.8791367E1,2.9006221E0,9.488703E-1,-3.519099E0,-6.743712E-1,-2.607691E-1,3.6644237E0,-3.5902996E0,1.1081853E0,4.1552073E-1,-1.0144145E0,-1.8501375E0,-2.4951872E-1,-1.1302902E-1,-3.2739992E0,1.2611407E1,3.1514466E0,-1.0269846E0,3.846715E0,7.7593464E-1,2.8024817E0,5.2002726E0,1.4844159E0,6.3514466E0,2.5784314E-1,7.8752384E0,-7.8300935E-1,2.0881778E-1,-2.5365353E0,5.3996477E0,-8.634977E-1,-1.6455117E-1,3.3591466E0,-2.6659946E0,7.801588E-1,6.505871E-1,-4.093733E-1,-1.9687916E0,1.5213817E-1,2.0615335E0,-7.06761E-1,-1.1634502E0,-3.056709E0,-2.6579132E0,1.9940258E0,-6.4833446E0,-6.1655676E-1,4.3832126E0,-4.4589102E-1,-2.370103E0,1.2927079E0,-2.8549543E-1,2.300667E0,-1.8496547E0,-2.1637538E-1,-3.8014588E0,-8.354725E-1,6.120336E-1,-1.1160563E0],"split_indices":[0,3,2,3,3,1,0,1,1,0,2,0,0,3,0,0,2,0,0,2,2,2,1,2,2,3,1,0,2,1,0,0,0,0,0,2,2,3,2,0,2,3,3,0,1,1,0,2,0,3,0,0,0,3,3,1,2,1,2,3,2,3,3,0,0,0,0,0,0,0,0,0,0,0,0,0,0,0,0,0,0,0,0,0,0,0,0,0,0,0,0,0,0,0,0,0,0,0,0,0,0,0,0,0,0,0,0,0,0,0,0,0,0,0,0,0,0,0,0,0,0],"split_type":[0,0,0,0,0,0,0,0,0,0,0,0,0,0,0,0,0,0,0,0,0,0,0,0,0,0,0,0,0,0,0,0,0,0,0,0,0,0,0,0,0,0,0,0,0,0,0,0,0,0,0,0,0,0,0,0,0,0,0,0,0,0,0,0,0,0,0,0,0,0,0,0,0,0,0,0,0,0,0,0,0,0,0,0,0,0,0,0,0,0,0,0,0,0,0,0,0,0,0,0,0,0,0,0,0,0,0,0,0,0,0,0,0,0,0,0,0,0,0,0,0],"sum_hessian":[3.898E3,2.055E3,1.843E3,1.725E3,3.3E2,1.106E3,7.37E2,2.99E2,1.426E3,2.25E2,1.05E2,6.51E2,4.55E2,3.5E1,7.02E2,2.59E2,4E1,8.64E2,5.62E2,2.5E1,2E2,2.2E1,8.3E1,2.27E2,4.24E2,4E0,4.51E2,2.1E1,1.4E1,1.94E2,5.08E2,2E0,2.57E2,3.5E1,5E0,4.64E2,4E2,4.72E2,9E1,4E0,2.1E1,1.41E2,5.9E1,1.7E1,5E0,6.2E1,2.1E1,3.5E1,1.92E2,3.6E2,6.4E1,1E0,3E0,3.22E2,1.29E2,8E0,1.3E1,3E0,1.1E1,1.06E2,8.8E1,1.1E1,4.97E2,1.08E2,1.49E2,7E0,2.8E1,1E0,4E0,1E1,4.54E2,2.52E2,1.48E2,6.3E1,4.09E2,3E1,6E1,2E0,2E0,4E0,1.7E1,7E1,7.1E1,2.7E1,3.2E1,2E0,1.5E1,4E0,1E0,4.2E1,2E1,7E0,1.4E1,8E0,2.7E1,1.2E1,1.8E2,8.7E1,2.73E2,4E1,2.4E1,8E0,3.14E2,1.07E2,2.2E1,5E0,3E0,1.2E1,1E0,2E0,1E0,9E0,2E0,8.1E1,2.5E1,5.3E1,3.5E1,9E0,2E0,2.3E1,4.74E2],"tree_param":{"num_deleted":"0","num_feature":"4","num_nodes":"121","size_leaf_vector":"1"}},{"base_weights":[2.806431E-2,1.4451143E0,-1.1641978E0,2.6848166E0,-6.2136334E-1,-9.23276E-1,-5.276686E0,1.9965514E0,5.553439E0,-2.5285068E0,1.1033326E0,-1.5806627E0,6.227969E-1,5.586338E-1,-5.827264E0,6.989E0,1.3567188E0,2.1360094E1,4.513833E0,-4.266562E0,1.991507E0,5.2591925E0,-4.7565845E-1,-5.0754184E-1,-2.881128E0,2.8939972E0,-5.172103E-1,-4.7785354E0,5.802697E0,2.5261838E0,-6.0411177E0,-4.607191E0,8.024922E0,2.0256176E0,-2.2661881E0,-2.154656E0,7.3011403E0,9.868464E0,2.7460063E0,-3.4431846E0,-1.1190419E1,2.408592E1,3.8962623E-1,6.978652E0,-1.4742126E1,-4.913929E0,1.2542396E0,-1.3569227E0,2.3505893E0,-1.5855752E0,-4.295445E0,7.9222074E0,1.0738004E0,-7.4916787E0,-5.0866507E-2,4.5683157E-1,-1.9030054E0,-2.1232243E0,1.0296464E1,-1.1780565E1,-5.039674E0,-4.3927674E0,1.9048837E0,5.560572E0,1.9226018E0,3.8232008E-1,1.9795748E0,1.0516244E0,-9.8096186E-1,2.4484491E0,1.0167135E1,-1.8759903E0,1.172506E0,-1.7317485E0,-1.052829E-1,-4.9808793E0,-1.841525E0,9.826577E0,-2.8891137E0,1.820481E0,-9.664864E-1,3.369187E0,1.7533797E-1,-2.370762E-1,-5.7783127E0,-3.857908E0,-9.810815E-1,1.0929321E0,-4.9843782E-1,1.3688563E0,-5.3069323E-1,3.5968187E0,5.104867E-1,8.960088E-2,-1.0380977E0,-2.016679E0,-1.0693834E0,3.0860634E0,8.25823E-1,5.425823E0,1.0574687E-1,1.5152951E0,-2.6405861E0,8.301584E-2,-2.3794134E0,-8.750654E-1,-8.0385596E-2,8.5963213E-1,3.5454977E0,-2.5340579E0,-5.027582E0,-3.38525E-1,-1.7360858E0],"categories":[],"categories_nodes":[],"categories_segments":[],"categories_sizes":[],"default_left":[0,0,0,0,0,0,0,0,0,0,0,0,0,0,0,0,0,0,0,0,0,0,0,0,0,0,0,0,0,0,0,0,0,0,0,0,0,0,0,0,0,0,0,0,0,0,0,0,0,0,0,0,0,0,0,0,0,0,0,0,0,0,0,0,0,0,0,0,0,0,0,0,0,0,0,0,0,0,0,0,0,0,0,0,0,0,0,0,0,0,0,0,0,0,0,0,0,0,0,0,0,0,0,0,0,0,0,0,0,0,0,0,0],"id":6,"left_children":[1,3,5,7,9,11,13,15,17,19,21,23,25,27,29,31,33,35,37,39,41,43,45,47,49,51,53,55,57,-1,59,61,63,65,67,-1,-1,69,71,73,75,77,79,81,83,85,87,89,91,93,95,97,99,101,103,-1,-1,105,107,109,111,-1,-1,-1,-1,-1,-1,-1,-1,-1,-1,-1,-1,-1,-1,-1,-1,-1,-1,-1,-1,-1,-1,-1,-1,-1,-1,-1,-1,-1,-1,-1,-1,-1,-1,-1,-1,-1,-1,-1,-1,-1,-1,-1,-1,-1,-1,-1,-1,-1,-1,-1,-1],"loss_changes":[6.589023E3,4.566826E3,2.0936167E3,2.1883633E3,2.2032932E3,2.0357529E3,3.791526E2,2.8654158E3,3.4366123E3,2.5067153E3,2.3123486E3,1.9592942E3,1.5498293E3,3.3560138E2,3.7689502E2,1.2622734E3,1.9408534E3,1.2794229E3,1.8945122E3,1.272688E3,3.1405583E3,3.438852E3,1.9716685E3,1.8749014E3,1.1567144E3,1.8219596E3,1.2973663E3,6.882178E1,2.3556516E2,0E0,5.4988916E2,1.0825743E3,1.4780205E3,2.3104111E3,7.355709E2,0E0,0E0,1.7736396E3,1.6353289E3,1.4889517E3,5.543408E2,2.0692332E3,1.7421366E3,2.440349E3,4.8915747E2,8.9827356E2,1.2946183E3,1.459438E3,1.0867805E3,1.1773522E3,5.134385E2,6.1955884E2,1.8097534E3,4.5531677E2,9.7027405E2,0E0,0E0,3.6357832E0,1.1371246E1,1.07372314E2,2.6236743E2,0E0,0E0,0E0,0E0,0E0,0E0,0E0,0E0,0E0,0E0,0E0,0E0,0E0,0E0,0E0,0E0,0E0,0E0,0E0,0E0,0E0,0E0,0E0,0E0,0E0,0E0,0E0,0E0,0E0,0E0,0E0,0E0,0E0,0E0,0E0,0E0,0E0,0E0,0E0,0E0,0E0,0E0,0E0,0E0,0E0,0E0,0E0,0E0,0E0,0E0,0E0,0E0],"parents":[2147483647,0,0,1,1,2,2,3,3,4,4,5,5,6,6,7,7,8,8,9,9,10,10,11,11,12,12,13,13,14,14,15,15,16,16,17,17,18,18,19,19,20,20,21,21,22,22,23,23,24,24,25,25,26,26,27,27,28,28,30,30,31,31,32,32,33,33,34,34,37,37,38,38,39,39,40,40,41,41,42,42,43,43,44,44,45,45,46,46,47,47,48,48,49,49,50,50,51,51,52,52,53,53,54,54,57,57,58,58,59,59,60,60],"right_children":[2,4,6,8,10,12,14,16,18,20,22,24,26,28,30,32,34,36,38,40,42,44,46,48,50,52,54,56,58,-1,60,62,64,66,68,-1,-1,70,72,74,76,78,80,82,84,86,88,90,92,94,96,98,100,102,104,-1,-1,106,108,110,112,-1,-1,-1,-1,-1,-1,-1,-1,-1,-1,-1,-1,-1,-1,-1,-1,-1,-1,-1,-1,-1,-1,-1,-1,-1,-1,-1,-1,-1,-1,-1,-1,-1,-1,-1,-1,-1,-1,-1,-1,-1,-1,-1,-1,-1,-1,-1,-1,-1,-1,-1,-1],"split_conditions":[2.3137E1,2.8348713E1,2.4999998E1,2.2396597E2,4.1838013E1,2.4646416E2,3.0835384E1,2.101737E1,2.3706775E2,5.1E0,1.4507833E1,2.7862E1,2.6404089E1,2.192435E1,2.3318665E1,1.6347416E1,6.9000006E0,1.8697416E1,1.8526585E1,4.1775517E1,5.3E0,6.7E0,3.1902174E1,2.2102892E2,2.3145573E2,1.1440979E1,2.6707832E1,5.04E1,2.418117E1,2.5261838E0,2.4443665E1,1.420677E1,1.01887E1,2.6729847E1,2.6541218E1,-2.154656E0,7.3011403E0,7.2E0,1.9153666E1,1.8205751E1,4.0033257E1,3.249785E1,3.1311722E1,3.3549606E1,2.9546328E1,4.300308E1,3.8268524E1,1.5469208E1,2.3870752E1,4E-1,2.3598059E2,3.0843124E2,2.4759914E2,6.9899354E0,3.4224936E2,4.5683157E-1,-1.9030054E0,2.3172415E1,2.4572416E1,1.933639E1,2.503283E1,-4.3927674E0,1.9048837E0,5.560572E0,1.9226018E0,3.8232008E-1,1.9795748E0,1.0516244E0,-9.8096186E-1,2.4484491E0,1.0167135E1,-1.8759903E0,1.172506E0,-1.7317485E0,-1.052829E-1,-4.9808793E0,-1.841525E0,9.826577E0,-2.8891137E0,1.820481E0,-9.664864E-1,3.369187E0,1.7533797E-1,-2.370762E-1,-5.7783127E0,-3.857908E0,-9.810815E-1,1.0929321E0,-4.9843782E-1,1.3688563E0,-5.3069323E-1,3.5968187E0,5.104867E-1,8.960088E-2,-1.0380977E0,-2.016679E0,-1.0693834E0,3.0860634E0,8.25823E-1,5.425823E0,1.0574687E-1,1.5152951E0,-2.6405861E0,8.301584E-2,-2.3794134E0,-8.750654E-1,-8.0385596E-2,8.5963213E-1,3.5454977E0,-2.5340579E0,-5.027582E0,-3.38525E-1,-1.7360858E0],"split_indices":[0,2,1,3,3,3,3,3,3,1,0,0,0,3,0,0,1,0,0,2,1,1,2,3,3,2,0,1,0,0,0,3,2,2,3,0,0,1,0,0,3,2,2,2,2,3,2,3,0,1,3,3,3,2,3,0,0,0,0,2,0,0,0,0,0,0,0,0,0,0,0,0,0,0,0,0,0,0,0,0,0,0,0,0,0,0,0,0,0,0,0,0,0,0,0,0,0,0,0,0,0,0,0,0,0,0,0,0,0,0,0,0,0],"split_type":[0,0,0,0,0,0,0,0,0,0,0,0,0,0,0,0,0,0,0,0,0,0,0,0,0,0,0,0,0,0,0,0,0,0,0,0,0,0,0,0,0,0,0,0,0,0,0,0,0,0,0,0,0,0,0,0,0,0,0,0,0,0,0,0,0,0,0,0,0,0,0,0,0,0,0,0,0,0,0,0,0,0,0,0,0,0,0,0,0,0,0,0,0,0,0,0,0,0,0,0,0,0,0,0,0,0,0,0,0,0,0,0,0],"sum_hessian":[3.898E3,1.781E3,2.117E3,1.113E3,6.68E2,2.001E3,1.16E2,8.99E2,2.14E2,3.17E2,3.51E2,1.404E3,5.97E2,1E1,1.06E2,1.01E2,7.98E2,1.2E1,2.02E2,2.29E2,8.8E1,9.6E1,2.55E2,7.7E2,6.34E2,1.99E2,3.98E2,5E0,5E0,1E0,1.05E2,8E0,9.3E1,6.74E2,1.24E2,1E0,1.1E1,4.9E1,1.53E2,2.06E2,2.3E1,5E0,8.3E1,8.9E1,7E0,7.1E1,1.84E2,5.94E2,1.76E2,3.32E2,3.02E2,5.2E1,1.47E2,2.4E1,3.74E2,1E0,4E0,2E0,3E0,1.4E1,9.1E1,4E0,4E0,1.1E1,8.2E1,5.8E2,9.4E1,1.8E1,1.06E2,4.7E1,2E0,1.7E1,1.36E2,1.17E2,8.9E1,1E1,1.3E1,4E0,1E0,3.2E1,5.1E1,5.3E1,3.6E1,2E0,5E0,1.1E1,6E1,1.01E2,8.3E1,3.8E1,5.56E2,1E1,1.66E2,1.66E2,1.66E2,6.8E1,2.34E2,3.5E1,1.7E1,5E0,1.42E2,2E0,2.2E1,3.6E2,1.4E1,1E0,1E0,1E0,2E0,1E1,4E0,1.5E1,7.6E1],"tree_param":{"num_deleted":"0","num_feature":"4","num_nodes":"113","size_leaf_vector":"1"}},{"base_weights":[2.4448708E-2,7.8629565E-1,-1.1062059E0,2.9693246E0,2.1530578E-1,-6.889199E-1,-2.516993E0,-8.334185E0,3.1530614E0,4.8371744E-1,-3.4568262E0,-9.6690334E-2,-1.763228E0,4.856508E0,-2.7428305E0,-1.4160245E1,1.0319366E0,7.153624E0,2.4456894E0,1.7720383E1,4.0307817E-1,-3.9237018E0,-2.6048722E0,-5.6258005E-1,1.6651897E0,6.270753E0,-2.0280905E0,2.1677811E-1,8.68682E0,-7.640607E0,-2.3727093E0,-2.124535E0,-6.371114E0,-2.333234E0,1.9682641E0,1.2096561E1,3.4526298E0,1.269005E0,4.6481886E0,2.3480667E1,2.9301834E-1,-7.1133137E-1,1.3325127E0,-5.8752027E0,-7.6330954E-1,-3.5858616E-1,-1.4371656E1,-4.1621378E-1,5.6867576E0,1.6328577E1,-6.119725E0,-8.811982E0,-1.6470485E0,4.300516E0,-1.5901396E0,4.4701433E0,3.4240346E0,-1.1548422E1,1.618576E0,-1.9810327E0,-8.942913E0,2.7366319E0,1.074779E1,-1.2879636E0,2.5153277E0,6.865899E-1,-1.6577789E0,7.1391673E0,1.1307602E0,1.5754018E0,1.1987865E1,1.2937284E0,-1.16187E0,-1.2618148E-1,-2.3194404E0,8.0008835E-1,1.2470492E-1,1.3274644E-1,-3.1895723E0,4.396047E0,-6.166161E-1,-1.6994188E0,-2.5478313E-2,-5.572562E0,2.8885128E0,2.7174452E-1,-4.561821E0,2.9634614E0,-3.7198302E-1,5.7385364E0,-4.9058363E-1,-2.1096358E0,-9.680443E-2,-1.7065431E0,-4.8579755E0,-3.5711017E-1,-1.6750035E0,1.4613354E0,3.8830665E-1,1.7356786E0,7.856827E-2,-2.105784E0,-4.729889E0,-1.7981054E0,3.2187774E0,9.9366677E-1,-7.6292986E-1,-3.0856874E0,3.5975647E-1],"categories":[],"categories_nodes":[],"categories_segments":[],"categories_sizes":[],"default_left":[0,0,0,0,0,0,0,0,0,0,0,0,0,0,0,0,0,0,0,0,0,0,0,0,0,0,0,0,0,0,0,0,0,0,0,0,0,0,0,0,0,0,0,0,0,0,0,0,0,0,0,0,0,0,0,0,0,0,0,0,0,0,0,0,0,0,0,0,0,0,0,0,0,0,0,0,0,0,0,0,0,0,0,0,0,0,0,0,0,0,0,0,0,0,0,0,0,0,0,0,0,0,0,0,0,0,0,0,0],"id":7,"left_children":[1,3,5,7,9,11,13,15,17,19,21,23,25,27,29,31,33,35,37,39,41,-1,43,45,47,49,51,53,55,57,59,-1,-1,-1,-1,61,63,65,67,69,71,73,75,77,79,81,83,85,87,89,91,93,95,97,-1,99,-1,101,103,105,107,-1,-1,-1,-1,-1,-1,-1,-1,-1,-1,-1,-1,-1,-1,-1,-1,-1,-1,-1,-1,-1,-1,-1,-1,-1,-1,-1,-1,-1,-1,-1,-1,-1,-1,-1,-1,-1,-1,-1,-1,-1,-1,-1,-1,-1,-1,-1,-1],"loss_changes":[3.3594128E3,2.9036763E3,9.225277E2,1.0294072E3,1.8231405E3,7.7158514E2,6.094675E2,4.511532E2,1.3295298E3,2.3877456E3,9.988352E2,6.4365594E2,9.298425E2,1.9360461E2,6.1271533E2,1.00068054E2,2.4585323E2,1.2570938E3,1.04631E3,7.9621265E2,1.7783306E3,0E0,7.001501E2,1.7413663E3,1.3751296E3,1.8446239E3,1.0659948E3,1.5798059E2,1.7964111E1,8.87088E2,8.1863696E2,0E0,0E0,0E0,0E0,1.7906538E3,1.6404341E3,1.8555759E3,2.283584E3,1.592552E3,6.6935196E1,1.5907214E3,1.1440514E3,1.266863E3,1.5440154E3,8.8818634E2,1.0868171E3,2.1450085E3,1.638091E3,4.3365283E2,3.4755157E1,4.151046E2,7.070139E2,5.5633545E-1,0E0,2.062777E1,0E0,2.1408911E2,6.191308E2,9.2477356E2,2.5745703E2,0E0,0E0,0E0,0E0,0E0,0E0,0E0,0E0,0E0,0E0,0E0,0E0,0E0,0E0,0E0,0E0,0E0,0E0,0E0,0E0,0E0,0E0,0E0,0E0,0E0,0E0,0E0,0E0,0E0,0E0,0E0,0E0,0E0,0E0,0E0,0E0,0E0,0E0,0E0,0E0,0E0,0E0,0E0,0E0,0E0,0E0,0E0,0E0],"parents":[2147483647,0,0,1,1,2,2,3,3,4,4,5,5,6,6,7,7,8,8,9,9,10,10,11,11,12,12,13,13,14,14,15,15,16,16,17,17,18,18,19,19,20,20,22,22,23,23,24,24,25,25,26,26,27,27,28,28,29,29,30,30,35,35,36,36,37,37,38,38,39,39,40,40,41,41,42,42,43,43,44,44,45,45,46,46,47,47,48,48,49,49,50,50,51,51,52,52,53,53,55,55,57,57,58,58,59,59,60,60],"right_children":[2,4,6,8,10,12,14,16,18,20,22,24,26,28,30,32,34,36,38,40,42,-1,44,46,48,50,52,54,56,58,60,-1,-1,-1,-1,62,64,66,68,70,72,74,76,78,80,82,84,86,88,90,92,94,96,98,-1,100,-1,102,104,106,108,-1,-1,-1,-1,-1,-1,-1,-1,-1,-1,-1,-1,-1,-1,-1,-1,-1,-1,-1,-1,-1,-1,-1,-1,-1,-1,-1,-1,-1,-1,-1,-1,-1,-1,-1,-1,-1,-1,-1,-1,-1,-1,-1,-1,-1,-1,-1,-1],"split_conditions":[2.5505747E1,1.4494192E1,2.6518099E1,1.4507833E1,2.06E1,2.9E0,3.0835384E1,2.1431784E2,1.7733252E1,6.3932667E0,1.5815435E1,2.6618597E2,2.5655746E1,2.192435E1,4.079324E1,1.4284917E1,9.726665E0,5.342686E1,2.5799176E2,2.2476227E1,4.1838013E1,-3.9237018E0,3.7885807E1,2.6452274E2,1.4494192E1,1.46E1,3.1E0,1.5469208E1,2.6404089E1,6.9000006E0,3.6699997E1,-2.124535E0,-6.371114E0,-2.333234E0,1.9682641E0,4.832631E1,2.2268791E2,2.434957E2,2.6155356E2,1.933639E1,1.8089083E1,4.1775517E1,1.8526585E1,3.1173424E1,3.8791367E1,9.19939E0,1.8E0,2.9966583E1,3.0843124E2,2.5949252E2,2.5553665E1,1.7673029E1,2.8491418E2,1.1600001E1,-1.5901396E0,2.6224915E1,3.4240346E0,4E-1,3.6726955E1,2.6335337E1,2.7997192E2,2.7366319E0,1.074779E1,-1.2879636E0,2.5153277E0,6.865899E-1,-1.6577789E0,7.1391673E0,1.1307602E0,1.5754018E0,1.1987865E1,1.2937284E0,-1.16187E0,-1.2618148E-1,-2.3194404E0,8.0008835E-1,1.2470492E-1,1.3274644E-1,-3.1895723E0,4.396047E0,-6.166161E-1,-1.6994188E0,-2.5478313E-2,-5.572562E0,2.8885128E0,2.7174452E-1,-4.561821E0,2.9634614E0,-3.7198302E-1,5.7385364E0,-4.9058363E-1,-2.1096358E0,-9.680443E-2,-1.7065431E0,-4.8579755E0,-3.5711017E-1,-1.6750035E0,1.4613354E0,3.8830665E-1,1.7356786E0,7.856827E-2,-2.105784E0,-4.729889E0,-1.7981054E0,3.2187774E0,9.9366677E-1,-7.6292986E-1,-3.0856874E0,3.5975647E-1],"split_indices":[0,2,2,0,1,1,3,3,0,3,2,3,0,3,3,0,2,3,3,2,3,0,3,3,2,1,1,3,0,1,1,0,0,0,0,3,3,3,3,2,0,2,0,3,3,2,1,0,3,3,0,2,3,1,0,0,0,1,3,0,3,0,0,0,0,0,0,0,0,0,0,0,0,0,0,0,0,0,0,0,0,0,0,0,0,0,0,0,0,0,0,0,0,0,0,0,0,0,0,0,0,0,0,0,0,0,0,0,0],"split_type":[0,0,0,0,0,0,0,0,0,0,0,0,0,0,0,0,0,0,0,0,0,0,0,0,0,0,0,0,0,0,0,0,0,0,0,0,0,0,0,0,0,0,0,0,0,0,0,0,0,0,0,0,0,0,0,0,0,0,0,0,0,0,0,0,0,0,0,0,0,0,0,0,0,0,0,0,0,0,0,0,0,0,0,0,0,0,0,0,0,0,0,0,0,0,0,0,0,0,0,0,0,0,0,0,0,0,0,0,0],"sum_hessian":[3.898E3,2.329E3,1.569E3,4.82E2,1.847E3,1.212E3,3.57E2,7E0,4.75E2,1.722E3,1.25E2,7.82E2,4.3E2,1E1,3.47E2,4E0,3E0,7E1,4.05E2,7E0,1.715E3,9E0,1.16E2,6.19E2,1.63E2,1.3E1,4.17E2,5E0,5E0,2.3E1,3.24E2,3E0,1E0,1E0,2E0,2.9E1,4.1E1,2.65E2,1.4E2,5E0,2E0,7.8E2,9.35E2,4.1E1,7.5E1,6.11E2,8E0,1.08E2,5.5E1,7E0,6E0,2.1E1,3.96E2,3E0,2E0,3E0,2E0,1.6E1,7E0,3.07E2,1.7E1,2.7E1,2E0,1.6E1,2.5E1,2.31E2,3.4E1,5E0,1.35E2,3E0,2E0,1E0,1E0,7.5E2,3E1,3.8E2,5.55E2,1.8E1,2.3E1,5E0,7E1,2.9E1,5.82E2,7E0,1E0,1E2,8E0,3.4E1,2.1E1,6E0,1E0,5E0,1E0,1.6E1,5E0,3.56E2,4E1,2E0,1E0,2E0,1E0,9E0,7E0,4E0,3E0,2.9E1,2.78E2,1.5E1,2E0],"tree_param":{"num_deleted":"0","num_feature":"4","num_nodes":"109","size_leaf_vector":"1"}},{"base_weights":[1.9178178E-2,7.689791E-1,-6.116832E-1,1.9603564E0,-1.00744195E-1,-2.1264797E-1,-1.6924096E0,1.7810439E0,1.1285468E1,-6.893812E-1,1.8634511E0,4.974376E-1,-1.3920983E0,-9.090853E-2,-2.3320022E0,8.321351E0,1.5213393E0,-1.9235259E0,1.3140005E1,2.5275073E0,-1.1459653E0,5.6567276E-1,8.678978E0,-4.3734616E-1,1.490955E0,-1.5361973E0,9.13903E0,6.328767E-1,-4.339359E0,-5.4246864E0,-1.9997139E0,-5.640903E0,1.2385643E1,3.218627E0,5.7878506E-1,3.5948434E0,1.6982872E1,-4.6272078E0,5.414257E0,-6.3330784E0,-8.4512126E-1,5.088646E0,-3.001675E0,3.1135E1,4.333065E0,-3.2087695E-2,-6.771817E0,1.2984414E0,1.1186265E1,-2.2069564E0,7.0953536E-1,2.5500088E0,3.7747328E0,1.0926783E0,-9.894772E0,-9.183329E0,-8.20755E-1,-5.713456E-1,-8.776083E0,7.357712E-1,-2.5960224E0,3.0537906E0,-4.2014537E0,7.578451E0,2.4362774E0,1.7665716E0,-1.7918652E-2,3.0452488E-2,2.0210755E0,5.7614E0,-1.5326338E0,5.9021864E0,-6.8186647E-1,1.652628E0,-2.8391495E0,5.3486595E0,9.973722E-1,-2.832509E0,9.9456656E-1,4.1167974E0,-3.1356627E-1,2.1263158E0,-6.487626E-1,-4.873534E0,-4.6745545E-1,1.119788E1,3.7504947E0,-1.9986812E0,2.6201732E0,8.8318545E-1,-2.4417304E-1,8.102941E-1,-2.377316E0,9.9120057E-1,1.13092646E-1,4.4091597E0,-2.535181E0,6.1473765E0,-6.9140106E-1,-3.4555733E-1,1.7270856E0,1.246669E0,-3.3999825E-1,-2.8637302E-1,1.2103124E0,-4.5918636E0,1.8562165E-1,-3.4737723E0,1.8569819E0,1.9643618E0,-9.6257037E-1,-2.2080066E0,6.2509006E-1,8.162553E-1,-3.000178E0,-7.4413955E-1,2.0989254E0,-1.0333343E0,-1.4231488E-1],"categories":[],"categories_nodes":[],"categories_segments":[],"categories_sizes":[],"default_left":[0,0,0,0,0,0,0,0,0,0,0,0,0,0,0,0,0,0,0,0,0,0,0,0,0,0,0,0,0,0,0,0,0,0,0,0,0,0,0,0,0,0,0,0,0,0,0,0,0,0,0,0,0,0,0,0,0,0,0,0,0,0,0,0,0,0,0,0,0,0,0,0,0,0,0,0,0,0,0,0,0,0,0,0,0,0,0,0,0,0,0,0,0,0,0,0,0,0,0,0,0,0,0,0,0,0,0,0,0,0,0,0,0,0,0,0,0,0,0],"id":8,"left_children":[1,3,5,7,9,11,13,15,17,19,21,23,25,27,29,31,33,-1,35,37,39,41,43,45,47,49,51,53,55,57,59,61,63,65,67,69,71,73,75,77,79,81,83,85,87,89,91,93,95,97,99,101,-1,103,105,107,109,111,113,115,117,-1,-1,-1,-1,-1,-1,-1,-1,-1,-1,-1,-1,-1,-1,-1,-1,-1,-1,-1,-1,-1,-1,-1,-1,-1,-1,-1,-1,-1,-1,-1,-1,-1,-1,-1,-1,-1,-1,-1,-1,-1,-1,-1,-1,-1,-1,-1,-1,-1,-1,-1,-1,-1,-1,-1,-1,-1,-1],"loss_changes":[1.8447769E3,1.84665E3,9.1302325E2,1.2373259E3,1.1933248E3,1.2971589E3,5.8466797E2,1.2425671E3,5.437324E2,1.1691079E3,2.1002107E3,8.987281E2,8.9723914E2,5.070406E2,4.0843872E2,1.6587732E3,1.1371843E3,0E0,4.1579956E2,2.0697866E3,1.0807642E3,3.2584133E3,3.5735828E3,1.2807644E3,8.608539E2,8.6771436E2,1.4942438E2,6.933405E2,4.01519E2,6.293391E2,6.054514E2,1.0687944E3,1.0029158E3,2.2236213E3,1.3483787E3,7.774224E2,5.1108594E2,1.4738258E3,1.7826506E3,1.1710308E3,1.9353333E3,1.3054407E3,2.1348828E3,2.2554395E2,1.6550172E3,1.095961E3,3.489453E2,8.507081E2,7.44694E2,1.0297671E3,1.2561963E3,2.8364805E1,0E0,8.228977E2,3.508299E2,4.4000482E2,2.8493286E2,3.2174008E2,3.510066E2,1.3664474E3,5.455818E2,0E0,0E0,0E0,0E0,0E0,0E0,0E0,0E0,0E0,0E0,0E0,0E0,0E0,0E0,0E0,0E0,0E0,0E0,0E0,0E0,0E0,0E0,0E0,0E0,0E0,0E0,0E0,0E0,0E0,0E0,0E0,0E0,0E0,0E0,0E0,0E0,0E0,0E0,0E0,0E0,0E0,0E0,0E0,0E0,0E0,0E0,0E0,0E0,0E0,0E0,0E0,0E0,0E0,0E0,0E0,0E0,0E0,0E0],"parents":[2147483647,0,0,1,1,2,2,3,3,4,4,5,5,6,6,7,7,8,8,9,9,10,10,11,11,12,12,13,13,14,14,15,15,16,16,18,18,19,19,20,20,21,21,22,22,23,23,24,24,25,25,26,26,27,27,28,28,29,29,30,30,31,31,32,32,33,33,34,34,35,35,36,36,37,37,38,38,39,39,40,40,41,41,42,42,43,43,44,44,45,45,46,46,47,47,48,48,49,49,50,50,51,51,53,53,54,54,55,55,56,56,57,57,58,58,59,59,60,60],"right_children":[2,4,6,8,10,12,14,16,18,20,22,24,26,28,30,32,34,-1,36,38,40,42,44,46,48,50,52,54,56,58,60,62,64,66,68,70,72,74,76,78,80,82,84,86,88,90,92,94,96,98,100,102,-1,104,106,108,110,112,114,116,118,-1,-1,-1,-1,-1,-1,-1,-1,-1,-1,-1,-1,-1,-1,-1,-1,-1,-1,-1,-1,-1,-1,-1,-1,-1,-1,-1,-1,-1,-1,-1,-1,-1,-1,-1,-1,-1,-1,-1,-1,-1,-1,-1,-1,-1,-1,-1,-1,-1,-1,-1,-1,-1,-1,-1,-1,-1,-1],"split_conditions":[2.3137E1,2.3166218E1,3.9E0,2.290743E1,4.661805E1,2.8399498E1,1.20694E1,9.156898E0,1.2687E1,3.4039413E1,2.1E0,2.165654E2,4.2548588E1,2.8724152E2,1.35515E1,1.0661107E1,1.841825E1,-1.9235259E0,3.584373E1,2.5076267E1,3.553775E1,4.9416187E1,3.3999999E0,1.7854057E2,2.8354088E1,2.5420706E2,1E-1,2.8884916E1,1.1100001E1,7.0999994E0,1.5408671E1,4.43262E0,1.1631956E1,1E-1,2.2845755E1,1.4507833E1,4.9619755E1,2E-1,1.6714083E1,1.9309916E1,3.584373E1,2.0743666E1,1.23145E1,2.8766228E1,4.877307E1,1.4982228E1,9.387651E0,2.5809916E1,2.6155356E2,7.653705E0,1.2E0,2.9266167E1,3.7747328E0,2.3420631E2,2.9016588E1,2.8974915E1,2.5295334E1,2.165654E2,2.4443665E1,2.446179E2,2.8082308E1,3.0537906E0,-4.2014537E0,7.578451E0,2.4362774E0,1.7665716E0,-1.7918652E-2,3.0452488E-2,2.0210755E0,5.7614E0,-1.5326338E0,5.9021864E0,-6.8186647E-1,1.652628E0,-2.8391495E0,5.3486595E0,9.973722E-1,-2.832509E0,9.9456656E-1,4.1167974E0,-3.1356627E-1,2.1263158E0,-6.487626E-1,-4.873534E0,-4.6745545E-1,1.119788E1,3.7504947E0,-1.9986812E0,2.6201732E0,8.8318545E-1,-2.4417304E-1,8.102941E-1,-2.377316E0,9.9120057E-1,1.13092646E-1,4.4091597E0,-2.535181E0,6.1473765E0,-6.9140106E-1,-3.4555733E-1,1.7270856E0,1.246669E0,-3.3999825E-1,-2.8637302E-1,1.2103124E0,-4.5918636E0,1.8562165E-1,-3.4737723E0,1.8569819E0,1.9643618E0,-9.6257037E-1,-2.2080066E0,6.2509006E-1,8.162553E-1,-3.000178E0,-7.4413955E-1,2.0989254E0,-1.0333343E0,-1.4231488E-1],"split_indices":[0,2,1,2,3,0,2,3,0,3,1,3,2,3,2,2,0,0,3,2,3,3,1,3,0,3,1,0,1,1,2,3,2,1,0,0,3,1,0,0,3,0,0,2,3,2,2,0,3,2,1,0,0,3,0,0,0,3,0,3,2,0,0,0,0,0,0,0,0,0,0,0,0,0,0,0,0,0,0,0,0,0,0,0,0,0,0,0,0,0,0,0,0,0,0,0,0,0,0,0,0,0,0,0,0,0,0,0,0,0,0,0,0,0,0,0,0,0,0],"split_type":[0,0,0,0,0,0,0,0,0,0,0,0,0,0,0,0,0,0,0,0,0,0,0,0,0,0,0,0,0,0,0,0,0,0,0,0,0,0,0,0,0,0,0,0,0,0,0,0,0,0,0,0,0,0,0,0,0,0,0,0,0,0,0,0,0,0,0,0,0,0,0,0,0,0,0,0,0,0,0,0,0,0,0,0,0,0,0,0,0,0,0,0,0,0,0,0,0,0,0,0,0,0,0,0,0,0,0,0,0,0,0,0,0,0,0,0,0,0,0],"sum_hessian":[3.898E3,1.781E3,2.117E3,7.51E2,1.03E3,1.547E3,5.7E2,7.38E2,1.3E1,7.93E2,2.37E2,9.66E2,5.81E2,1.63E2,4.07E2,2.7E1,7.11E2,1E0,1.2E1,9.8E1,6.95E2,2E2,3.7E1,4.98E2,4.68E2,5.74E2,7E0,1.4E2,2.3E1,3.8E1,3.69E2,6E0,2.1E1,2.53E2,4.58E2,4E0,8E0,2.8E1,7E1,3.7E1,6.58E2,8.8E1,1.12E2,5E0,3.2E1,4.69E2,2.9E1,4.6E2,8E0,4.42E2,1.32E2,3E0,4E0,1.35E2,5E0,9E0,1.4E1,1.6E1,2.2E1,6.6E1,3.03E2,2E0,4E0,4E0,1.7E1,1.39E2,1.14E2,4.26E2,3.2E1,1E0,3E0,7E0,1E0,9E0,1.9E1,9E0,6.1E1,2.8E1,9E0,8E0,6.5E2,6.9E1,1.9E1,1E1,1.02E2,3E0,2E0,9E0,2.3E1,9.7E1,3.72E2,3E0,2.6E1,1.44E2,3.16E2,7E0,1E0,1E0,4.41E2,9.7E1,3.5E1,2E0,1E0,8E1,5.5E1,3E0,2E0,8E0,1E0,3E0,1.1E1,4E0,1.2E1,2E0,2E1,4.4E1,2.2E1,2.16E2,8.7E1],"tree_param":{"num_deleted":"0","num_feature":"4","num_nodes":"119","size_leaf_vector":"1"}},{"base_weights":[2.4942966E-2,6.0184354E-1,-5.3391474E-1,5.4654056E-1,1.5629368E1,-3.953521E-1,-3.6200254E0,2.982104E0,3.270841E-1,5.3651066E0,6.595886E0,-1.2714052E0,9.294605E-2,-5.0071216E0,-1.4953986E0,-1.0795491E1,3.4100645E0,1.3758245E0,-8.337104E-2,2.5585341E0,-6.1873746E-1,1.3716322E0,-1.9420099E0,1.6479141E1,2.5436653E-2,1.4181435E0,-5.584126E0,5.7929313E-1,-6.0746617E0,-4.8428764E0,-1.8495636E0,-6.9472733E0,3.9505312E0,-4.7447906E0,1.9998167E0,-4.6508232E-1,1.8549486E0,-8.435206E-1,8.445407E0,-4.003759E0,-7.9955405E-1,3.2952324E1,-5.487091E0,2.8655362E-1,-4.123775E0,-4.4132333E0,2.033042E0,-7.433025E-1,-6.7110763E0,-3.5080445E0,4.0413475E0,-7.680269E0,2.301138E-1,1.3079121E0,-2.1402159E0,-4.7442307E0,4.606934E-1,2.666882E0,8.141081E-1,-2.6602154E0,1.0617851E0,1.4018067E0,2.1286686E-1,7.4229725E-3,-5.5079347E-1,2.6834828E-1,2.0231721E0,4.7634983E0,-7.1117795E-1,3.1501675E0,-2.0642771E-1,-9.3726623E-1,-4.269799E0,-3.9447236E0,-1.7473866E-1,2.78621E0,1.2042336E1,1.0295483E0,-3.4987395E0,4.972296E-2,3.2352939E0,-1.9320604E0,6.666499E-2,-4.458332E-2,-1.9413718E0,-8.1569225E-1,1.4318768E0,-2.3690734E0,-1.1469514E0,1.3165994E0,-1.9883732E0,2.1522007E0,-3.993578E-1,1.5715007E-1,-3.0297396E0],"categories":[],"categories_nodes":[],"categories_segments":[],"categories_sizes":[],"default_left":[0,0,0,0,0,0,0,0,0,0,0,0,0,0,0,0,0,0,0,0,0,0,0,0,0,0,0,0,0,0,0,0,0,0,0,0,0,0,0,0,0,0,0,0,0,0,0,0,0,0,0,0,0,0,0,0,0,0,0,0,0,0,0,0,0,0,0,0,0,0,0,0,0,0,0,0,0,0,0,0,0,0,0,0,0,0,0,0,0,0,0,0,0,0,0],"id":9,"left_children":[1,3,5,7,9,11,13,15,17,19,-1,21,23,25,27,29,31,33,35,-1,-1,37,39,41,43,45,47,49,51,-1,53,55,57,59,61,63,65,67,69,71,73,75,77,79,81,83,-1,85,87,89,91,93,-1,-1,-1,-1,-1,-1,-1,-1,-1,-1,-1,-1,-1,-1,-1,-1,-1,-1,-1,-1,-1,-1,-1,-1,-1,-1,-1,-1,-1,-1,-1,-1,-1,-1,-1,-1,-1,-1,-1,-1,-1,-1,-1],"loss_changes":[1.2573796E3,1.5862739E3,8.456833E2,1.0215235E3,3.387848E2,8.1160754E2,2.430127E2,9.68423E2,7.5600397E2,1.11573235E2,0E0,1.2061458E3,1.3480656E3,1.969967E2,3.3603864E2,2.0933124E2,8.895065E2,1.8961814E3,9.3532916E2,0E0,0E0,2.169514E3,1.2734565E3,1.9900813E3,1.3175487E3,1.8614952E2,2.5141394E2,3.6794183E2,1.2672711E2,0E0,1.2954085E2,6.2601746E2,8.7387524E2,1.6023705E3,1.5451514E3,7.091493E2,9.70657E2,2.744401E3,6.266592E2,1.6918997E3,9.306846E2,1.3756226E2,2.0525653E2,1.4490778E3,7.262672E2,2.5368156E1,0E0,1.21959946E2,9.994275E1,3.2472772E2,2.451744E2,1.838916E2,0E0,0E0,0E0,0E0,0E0,0E0,0E0,0E0,0E0,0E0,0E0,0E0,0E0,0E0,0E0,0E0,0E0,0E0,0E0,0E0,0E0,0E0,0E0,0E0,0E0,0E0,0E0,0E0,0E0,0E0,0E0,0E0,0E0,0E0,0E0,0E0,0E0,0E0,0E0,0E0,0E0,0E0,0E0],"parents":[2147483647,0,0,1,1,2,2,3,3,4,4,5,5,6,6,7,7,8,8,9,9,11,11,12,12,13,13,14,14,15,15,16,16,17,17,18,18,21,21,22,22,23,23,24,24,25,25,26,26,27,27,28,28,30,30,31,31,32,32,33,33,34,34,35,35,36,36,37,37,38,38,39,39,40,40,41,41,42,42,43,43,44,44,45,45,47,47,48,48,49,49,50,50,51,51],"right_children":[2,4,6,8,10,12,14,16,18,20,-1,22,24,26,28,30,32,34,36,-1,-1,38,40,42,44,46,48,50,52,-1,54,56,58,60,62,64,66,68,70,72,74,76,78,80,82,84,-1,86,88,90,92,94,-1,-1,-1,-1,-1,-1,-1,-1,-1,-1,-1,-1,-1,-1,-1,-1,-1,-1,-1,-1,-1,-1,-1,-1,-1,-1,-1,-1,-1,-1,-1,-1,-1,-1,-1,-1,-1,-1,-1,-1,-1,-1,-1],"split_conditions":[4E-1,3.5755762E2,3.9899998E1,2.9347427E1,2.219325E1,1.9000002E0,2.2179044E2,7.9526596E0,1.8945333E1,2.1620337E1,6.595886E0,1.2849528E1,2E0,4.2600002E1,6.76E1,2.3318665E1,1.6191587E1,3.685244E1,2.5716284E2,2.5585341E0,-6.1873746E-1,1.2181624E1,2.0743666E1,1.5284916E1,3.772965E1,2.3870752E1,3.0835384E1,5.04E1,3.236398E1,-4.8428764E0,2.4572416E1,1.420677E1,1.9153666E1,1.8016165E1,4.341987E1,2.3420631E2,2E-1,2.2489082E1,2.7997192E2,1.8E0,1.3138765E1,1.4284917E1,1.9080751E1,3.6408085E1,9.8E0,1.8318249E1,2.033042E0,2.759062E1,8.3600006E1,2.3318665E1,6.1E1,1.2522619E1,2.301138E-1,1.3079121E0,-2.1402159E0,-4.7442307E0,4.606934E-1,2.666882E0,8.141081E-1,-2.6602154E0,1.0617851E0,1.4018067E0,2.1286686E-1,7.4229725E-3,-5.5079347E-1,2.6834828E-1,2.0231721E0,4.7634983E0,-7.1117795E-1,3.1501675E0,-2.0642771E-1,-9.3726623E-1,-4.269799E0,-3.9447236E0,-1.7473866E-1,2.78621E0,1.2042336E1,1.0295483E0,-3.4987395E0,4.972296E-2,3.2352939E0,-1.9320604E0,6.666499E-2,-4.458332E-2,-1.9413718E0,-8.1569225E-1,1.4318768E0,-2.3690734E0,-1.1469514E0,1.3165994E0,-1.9883732E0,2.1522007E0,-3.993578E-1,1.5715007E-1,-3.0297396E0],"split_indices":[1,3,1,3,0,1,3,2,0,0,0,2,1,1,1,0,0,3,3,0,0,2,0,0,2,0,3,1,2,0,0,3,0,0,3,3,1,0,3,1,2,0,0,2,1,0,0,3,1,0,1,2,0,0,0,0,0,0,0,0,0,0,0,0,0,0,0,0,0,0,0,0,0,0,0,0,0,0,0,0,0,0,0,0,0,0,0,0,0,0,0,0,0,0,0],"split_type":[0,0,0,0,0,0,0,0,0,0,0,0,0,0,0,0,0,0,0,0,0,0,0,0,0,0,0,0,0,0,0,0,0,0,0,0,0,0,0,0,0,0,0,0,0,0,0,0,0,0,0,0,0,0,0,0,0,0,0,0,0,0,0,0,0,0,0,0,0,0,0,0,0,0,0,0,0,0,0,0,0,0,0,0,0,0,0,0,0,0,0,0,0,0,0],"sum_hessian":[3.898E3,1.918E3,1.98E3,1.912E3,6E0,1.896E3,8.4E1,1.57E2,1.755E3,3E0,3E0,6.78E2,1.218E3,5E1,3.4E1,4E0,1.53E2,4.93E2,1.262E3,2E0,1E0,1.37E2,5.41E2,4E0,1.214E3,4E0,4.6E1,2.4E1,1E1,2E0,2E0,7E0,1.46E2,4.5E1,4.48E2,1.055E3,2.07E2,1.05E2,3.2E1,1.92E2,3.49E2,2E0,2E0,1.143E3,7.1E1,2E0,2E0,9E0,3.7E1,1.1E1,1.3E1,8E0,2E0,1E0,1E0,3E0,4E0,2.8E1,1.18E2,3E1,1.5E1,1.45E2,3.03E2,7.78E2,2.77E2,1.74E2,3.3E1,8E0,9.7E1,2.6E1,6E0,1.78E2,1.4E1,5E0,3.44E2,1E0,1E0,1E0,1E0,1.131E3,1.2E1,4.6E1,2.5E1,1E0,1E0,7E0,2E0,2.5E1,1.2E1,3E0,8E0,8E0,5E0,2E0,6E0],"tree_param":{"num_deleted":"0","num_feature":"4","num_nodes":"95","size_leaf_vector":"1"}},{"base_weights":[2.024405E-2,1.6730283E0,-1.2649119E-1,-1.0493656E0,3.058552E0,1.924574E-2,-2.3865097E0,6.732516E-1,-4.9848065E0,2.510083E0,1.0597006E1,-1.17699794E-1,2.800505E0,-2.953665E0,4.459651E0,-2.8061934E0,3.874907E0,-8.102092E0,5.769472E0,7.55695E0,1.4177022E0,4.9629602E0,5.9237094E0,7.57115E-1,-4.680324E-1,1.269219E1,1.3570933E0,-2.500176E0,-1.0559371E1,7.4230876E0,-3.5532248E0,-7.6852523E-4,-1.0380763E1,6.1574464E0,-7.765271E0,-1.1713944E1,-5.112562E0,6.802184E0,-3.6443436E0,1.5474331E1,2.1751192E0,-4.139352E0,3.2436821E0,-3.7392172E-1,1.0374627E1,1.7367203E1,6.2879515E-1,-4.030433E0,-3.189143E-1,-5.997177E0,1.5101963E1,-1.9758085E0,6.4832673E0,-5.108098E0,-1.3527158E0,-6.8084943E-1,-4.832093E0,4.755726E-1,1.3442717E1,1.254318E0,-2.0531073E0,-4.081169E0,-6.435265E-1,8.729058E-1,3.0231893E0,-2.7360597E0,5.464325E-2,-3.9512434E0,4.2820647E-1,-2.161672E0,1.9077027E0,-1.6690426E0,-3.8817275E-1,-2.1319084E0,5.327385E0,4.454544E0,4.9607683E-2,-1.9022604E0,1.3178406E0,2.6867158E0,4.910577E-1,4.0580705E-1,-1.3510472E0,4.3271966E0,8.60117E-1,-6.2239003E-1,7.6676598E0,6.17081E-2,9.9476343E-1,1.0151765E0,-2.1007533E0,1.3046412E-1,-2.218792E-1,3.7563518E-1,-3.074365E0,2.4566057E0,6.815993E0,1.1363929E-1,-1.9607089E0,4.1438913E0,8.5220706E-1,2.9711124E-1,-2.2364714E0,2.8965602E0,-6.384779E-1,2.0985289E0,-2.4389534E0,1.1178942E0,-1.8553303E0,-5.758101E-1,4.773449E0],"categories":[],"categories_nodes":[],"categories_segments":[],"categories_sizes":[],"default_left":[0,0,0,0,0,0,0,0,0,0,0,0,0,0,0,0,0,0,0,0,0,0,0,0,0,0,0,0,0,0,0,0,0,0,0,0,0,0,0,0,0,0,0,0,0,0,0,0,0,0,0,0,0,0,0,0,0,0,0,0,0,0,0,0,0,0,0,0,0,0,0,0,0,0,0,0,0,0,0,0,0,0,0,0,0,0,0,0,0,0,0,0,0,0,0,0,0,0,0,0,0,0,0,0,0,0,0,0,0,0,0],"id":10,"left_children":[1,3,5,7,9,11,13,15,17,19,21,23,25,27,29,31,33,35,37,39,41,43,-1,45,47,49,51,53,55,57,-1,59,61,63,65,67,69,-1,71,73,75,77,79,81,83,85,87,89,91,93,95,97,99,101,103,105,-1,107,109,-1,-1,-1,-1,-1,-1,-1,-1,-1,-1,-1,-1,-1,-1,-1,-1,-1,-1,-1,-1,-1,-1,-1,-1,-1,-1,-1,-1,-1,-1,-1,-1,-1,-1,-1,-1,-1,-1,-1,-1,-1,-1,-1,-1,-1,-1,-1,-1,-1,-1,-1,-1],"loss_changes":[9.458037E2,1.2026868E3,1.1798425E3,7.355159E2,8.4580334E2,1.2823752E3,8.5574805E2,8.5751245E2,1.1530417E3,1.0808805E3,6.23621E2,9.838363E2,2.2386636E3,6.6686975E2,9.09276E2,7.862378E2,1.110581E3,2.2085315E2,1.3557167E3,1.4576918E3,1.6775463E3,2.926936E2,0E0,1.9457089E3,1.216267E3,9.91312E2,2.3876296E3,5.6465515E2,5.9185706E2,6.2092896E2,0E0,8.2985986E2,2.3626526E2,4.035232E2,7.703833E1,2.2939563E2,4.299822E2,0E0,1.9866127E1,8.481145E2,5.578938E2,7.979849E2,1.1234417E3,4.88728E1,1.1064996E2,1.1678518E3,1.0361786E3,2.0510117E3,6.982777E2,1.052754E2,7.6193066E2,9.1509863E2,1.4292073E3,8.3747473E2,1.1645232E3,3.4275943E2,0E0,1.9624481E2,3.3394458E2,0E0,0E0,0E0,0E0,0E0,0E0,0E0,0E0,0E0,0E0,0E0,0E0,0E0,0E0,0E0,0E0,0E0,0E0,0E0,0E0,0E0,0E0,0E0,0E0,0E0,0E0,0E0,0E0,0E0,0E0,0E0,0E0,0E0,0E0,0E0,0E0,0E0,0E0,0E0,0E0,0E0,0E0,0E0,0E0,0E0,0E0,0E0,0E0,0E0,0E0,0E0,0E0],"parents":[2147483647,0,0,1,1,2,2,3,3,4,4,5,5,6,6,7,7,8,8,9,9,10,10,11,11,12,12,13,13,14,14,15,15,16,16,17,17,18,18,19,19,20,20,21,21,23,23,24,24,25,25,26,26,27,27,28,28,29,29,31,31,32,32,33,33,34,34,35,35,36,36,38,38,39,39,40,40,41,41,42,42,43,43,44,44,45,45,46,46,47,47,48,48,49,49,50,50,51,51,52,52,53,53,54,54,55,55,57,57,58,58],"right_children":[2,4,6,8,10,12,14,16,18,20,22,24,26,28,30,32,34,36,38,40,42,44,-1,46,48,50,52,54,56,58,-1,60,62,64,66,68,70,-1,72,74,76,78,80,82,84,86,88,90,92,94,96,98,100,102,104,106,-1,108,110,-1,-1,-1,-1,-1,-1,-1,-1,-1,-1,-1,-1,-1,-1,-1,-1,-1,-1,-1,-1,-1,-1,-1,-1,-1,-1,-1,-1,-1,-1,-1,-1,-1,-1,-1,-1,-1,-1,-1,-1,-1,-1,-1,-1,-1,-1,-1,-1,-1,-1,-1,-1],"split_conditions":[1.024578E1,8.707237E0,2.957306E2,2.731825E1,1.01887E1,2.6618597E2,2.9476585E1,2.0345897E2,2.8430748E1,5.5037666E1,2.8491418E2,1.8945333E1,2.268075E1,2.8884916E1,3.0186996E1,8.435069E0,3.3608987E2,7.653705E0,2.8530748E1,1E-1,2.0878891E2,1E-1,5.9237094E0,9.156898E0,1.9441164E1,1.0739832E1,1.4693999E1,1.20694E1,4E-1,3.142624E2,-3.5532248E0,2.5505747E1,2.4912E1,2.7512805E2,8.900001E0,1.2900001E1,2.8921982E2,6.802184E0,2.3E0,1.5772835E1,8.854829E0,9.826088E0,2.1504084E1,2.5809916E1,2.9E0,4.43262E0,5.0657932E1,3.1173424E1,2.4314081E1,1.9251581E1,1.9672834E1,1.3237038E1,1.5629971E1,2.121825E1,1.2605142E1,1.5575981E1,-4.832093E0,3E-1,1.2522619E1,1.254318E0,-2.0531073E0,-4.081169E0,-6.435265E-1,8.729058E-1,3.0231893E0,-2.7360597E0,5.464325E-2,-3.9512434E0,4.2820647E-1,-2.161672E0,1.9077027E0,-1.6690426E0,-3.8817275E-1,-2.1319084E0,5.327385E0,4.454544E0,4.9607683E-2,-1.9022604E0,1.3178406E0,2.6867158E0,4.910577E-1,4.0580705E-1,-1.3510472E0,4.3271966E0,8.60117E-1,-6.2239003E-1,7.6676598E0,6.17081E-2,9.9476343E-1,1.0151765E0,-2.1007533E0,1.3046412E-1,-2.218792E-1,3.7563518E-1,-3.074365E0,2.4566057E0,6.815993E0,1.1363929E-1,-1.9607089E0,4.1438913E0,8.5220706E-1,2.9711124E-1,-2.2364714E0,2.8965602E0,-6.384779E-1,2.0985289E0,-2.4389534E0,1.1178942E0,-1.8553303E0,-5.758101E-1,4.773449E0],"split_indices":[2,2,3,0,2,3,0,3,0,3,3,0,0,0,0,2,3,2,0,1,3,1,0,3,0,2,2,2,1,3,0,0,0,3,1,1,3,0,1,0,2,2,0,0,1,3,3,3,0,0,0,2,2,0,2,2,0,1,2,0,0,0,0,0,0,0,0,0,0,0,0,0,0,0,0,0,0,0,0,0,0,0,0,0,0,0,0,0,0,0,0,0,0,0,0,0,0,0,0,0,0,0,0,0,0,0,0,0,0,0,0],"split_type":[0,0,0,0,0,0,0,0,0,0,0,0,0,0,0,0,0,0,0,0,0,0,0,0,0,0,0,0,0,0,0,0,0,0,0,0,0,0,0,0,0,0,0,0,0,0,0,0,0,0,0,0,0,0,0,0,0,0,0,0,0,0,0,0,0,0,0,0,0,0,0,0,0,0,0,0,0,0,0,0,0,0,0,0,0,0,0,0,0,0,0,0,0,0,0,0,0,0,0,0,0,0,0,0,0,0,0,0,0,0,0],"sum_hessian":[3.898E3,3.17E2,3.581E3,1.07E2,2.1E2,3.365E3,2.16E2,7.5E1,3.2E1,1.97E2,1.3E1,3.208E3,1.57E2,2E2,1.6E1,3.6E1,3.9E1,2.5E1,7E0,3.4E1,1.63E2,9E0,4E0,9.17E2,2.291E3,1.9E1,1.38E2,1.9E2,1E1,1.4E1,2E0,2.7E1,9E0,3.3E1,6E0,1E1,1.5E1,2E0,5E0,1.3E1,2.1E1,4E1,1.23E2,5E0,4E0,6E0,9.11E2,9.1E1,2.2E3,2E0,1.7E1,8.4E1,5.4E1,5.7E1,1.33E2,4E0,6E0,7E0,7E0,1.7E1,1E1,6E0,3E0,1.9E1,1.4E1,5E0,1E0,9E0,1E0,1.3E1,2E0,2E0,3E0,1E0,1.2E1,2E0,1.9E1,3.2E1,8E0,2.6E1,9.7E1,4E0,1E0,2E0,2E0,2E0,4E0,7.88E2,1.23E2,2.6E1,6.5E1,7.88E2,1.412E3,1E0,1E0,1E1,7E0,5.6E1,2.8E1,1.7E1,3.7E1,1.6E1,4.1E1,8E0,1.25E2,2E0,2E0,5E0,2E0,1E0,6E0],"tree_param":{"num_deleted":"0","num_feature":"4","num_nodes":"111","size_leaf_vector":"1"}},{"base_weights":[2.1562444E-2,1.5969822E-1,-1.1322708E0,1.0158866E-1,3.6506066E0,-5.1702957E0,-6.662246E-1,1.507049E0,-1.9573193E-2,1.8699843E0,1.6102198E1,-1.3846924E1,-3.098537E0,1.368046E1,-8.577804E-1,-6.936343E0,1.9576299E0,-3.8470953E0,7.994626E-2,8.188535E0,8.1557935E-1,1.6800092E0,1.9183058E1,-1.7751087E1,-1.4229559E0,-9.172726E-2,-6.453693E0,-1.1822027E0,7.194891E0,1.3387115E0,-1.3640608E0,-1.0865437E1,5.60275E0,1.1552667E1,1.5258907E0,1.8056234E1,-4.640209E0,4.948129E0,2.800139E-3,5.0725627E0,-1.531126E0,1.7137762E0,6.3367586E0,-9.134354E-1,-6.0250177E0,-1.2523065E0,6.1197627E-1,-2.1790657E0,5.935156E0,-8.917146E0,-4.5117283E-1,-8.4587865E-2,-4.4740334E-1,-1.3804988E1,2.465678E0,2.0982697E0,-1.6435947E0,-1.9894487E-1,-3.9176786E0,-1.3190919E-1,2.3290393E0,4.540648E0,-9.140091E-1,-5.2832402E-2,9.897261E-1,9.10308E0,-9.777741E-1,-5.2197685E0,-9.411655E-1,5.091381E0,2.7449974E-1,-1.8985683E0,1.5999656E-2,1.2091557E-1,3.2577212E0,2.203486E0,-9.026061E-1,5.379704E-1,-2.0375946E0,-1.1727755E0,-3.9820495E0,-1.0128092E0,2.1259673E0,1.1733891E0,-5.763565E0,-3.6571246E-1,1.7292349E0,-3.1805283E-1,3.3671687E0,-1.3370671E0,-3.6705124E-1],"categories":[],"categories_nodes":[],"categories_segments":[],"categories_sizes":[],"default_left":[0,0,0,0,0,0,0,0,0,0,0,0,0,0,0,0,0,0,0,0,0,0,0,0,0,0,0,0,0,0,0,0,0,0,0,0,0,0,0,0,0,0,0,0,0,0,0,0,0,0,0,0,0,0,0,0,0,0,0,0,0,0,0,0,0,0,0,0,0,0,0,0,0,0,0,0,0,0,0,0,0,0,0,0,0,0,0,0,0,0,0],"id":11,"left_children":[1,3,5,7,9,11,13,15,17,19,21,23,25,27,29,31,33,35,37,-1,39,-1,41,43,45,47,49,51,-1,53,55,57,59,61,63,65,67,69,71,73,75,-1,-1,-1,-1,-1,-1,77,-1,79,81,-1,-1,83,85,87,89,-1,-1,-1,-1,-1,-1,-1,-1,-1,-1,-1,-1,-1,-1,-1,-1,-1,-1,-1,-1,-1,-1,-1,-1,-1,-1,-1,-1,-1,-1,-1,-1,-1,-1],"loss_changes":[6.2162555E2,7.061737E2,7.8131036E2,5.836071E2,1.2336692E3,7.3005774E2,1.0423064E3,1.048384E3,1.2024688E3,1.3449661E3,1.1906445E2,3.627826E2,3.6258737E2,7.939662E2,4.143931E2,7.506181E2,1.0552932E3,1.4735315E3,1.1555886E3,0E0,5.07261E2,0E0,9.963623E0,1.446477E2,3.7098618E1,8.728515E2,2.4735449E2,4.1440916E-1,0E0,1.2286895E3,2.9573608E2,2.37505E2,5.5637596E1,6.2148987E2,7.520575E2,8.846304E2,1.4411964E3,2.3120342E3,9.697455E2,4.8198605E2,4.5489194E2,0E0,0E0,0E0,0E0,0E0,0E0,3.6033344E2,0E0,2.099043E2,1.5620515E2,0E0,0E0,5.540938E2,8.091787E2,6.748235E2,3.2546198E2,0E0,0E0,0E0,0E0,0E0,0E0,0E0,0E0,0E0,0E0,0E0,0E0,0E0,0E0,0E0,0E0,0E0,0E0,0E0,0E0,0E0,0E0,0E0,0E0,0E0,0E0,0E0,0E0,0E0,0E0,0E0,0E0,0E0,0E0],"parents":[2147483647,0,0,1,1,2,2,3,3,4,4,5,5,6,6,7,7,8,8,9,9,10,10,11,11,12,12,13,13,14,14,15,15,16,16,17,17,18,18,20,20,22,22,23,23,24,24,25,25,26,26,27,27,29,29,30,30,31,31,32,32,33,33,34,34,35,35,36,36,37,37,38,38,39,39,40,40,47,47,49,49,50,50,53,53,54,54,55,55,56,56],"right_children":[2,4,6,8,10,12,14,16,18,20,22,24,26,28,30,32,34,36,38,-1,40,-1,42,44,46,48,50,52,-1,54,56,58,60,62,64,66,68,70,72,74,76,-1,-1,-1,-1,-1,-1,78,-1,80,82,-1,-1,84,86,88,90,-1,-1,-1,-1,-1,-1,-1,-1,-1,-1,-1,-1,-1,-1,-1,-1,-1,-1,-1,-1,-1,-1,-1,-1,-1,-1,-1,-1,-1,-1,-1,-1,-1,-1],"split_conditions":[1.2900001E1,1.1100001E1,1.6278667E1,1.024578E1,2.5799176E2,3.259708E1,1.6639082E1,9.156898E0,1.0823973E1,9.345332E0,1.1631956E1,1.6191587E1,1.4507833E1,3.7359005E1,2.0572836E1,3.7E0,2.101737E1,1.600575E1,1.13098955E1,8.188535E0,2.1620337E1,1.6800092E0,2.7149753E2,1.2687E1,1.57E1,2.5800001E1,2.79E1,1.6347416E1,7.194891E0,1.3499999E1,2.6541218E1,1.6714083E1,7.42159E0,1.9E0,2.481443E2,1.0661107E1,1.8526585E1,1.1966953E1,1.420677E1,1.9080751E1,3.028125E1,1.7137762E0,6.3367586E0,-9.134354E-1,-6.0250177E0,-1.2523065E0,6.1197627E-1,1.7800001E1,5.935156E0,2.06E1,1.5374497E1,-8.4587865E-2,-4.4740334E-1,1.6805752E1,1.8318249E1,2.192435E1,2.2764498E1,-1.9894487E-1,-3.9176786E0,-1.3190919E-1,2.3290393E0,4.540648E0,-9.140091E-1,-5.2832402E-2,9.897261E-1,9.10308E0,-9.777741E-1,-5.2197685E0,-9.411655E-1,5.091381E0,2.7449974E-1,-1.8985683E0,1.5999656E-2,1.2091557E-1,3.2577212E0,2.203486E0,-9.026061E-1,5.379704E-1,-2.0375946E0,-1.1727755E0,-3.9820495E0,-1.0128092E0,2.1259673E0,1.1733891E0,-5.763565E0,-3.6571246E-1,1.7292349E0,-3.1805283E-1,3.3671687E0,-1.3370671E0,-3.6705124E-1],"split_indices":[1,1,0,2,3,3,0,3,2,0,2,0,0,3,0,1,3,0,3,0,0,0,3,0,1,1,1,0,0,1,3,0,2,1,3,2,0,2,3,0,3,0,0,0,0,0,0,1,0,1,0,0,0,0,0,3,0,0,0,0,0,0,0,0,0,0,0,0,0,0,0,0,0,0,0,0,0,0,0,0,0,0,0,0,0,0,0,0,0,0,0],"split_type":[0,0,0,0,0,0,0,0,0,0,0,0,0,0,0,0,0,0,0,0,0,0,0,0,0,0,0,0,0,0,0,0,0,0,0,0,0,0,0,0,0,0,0,0,0,0,0,0,0,0,0,0,0,0,0,0,0,0,0,0,0,0,0,0,0,0,0,0,0,0,0,0,0,0,0,0,0,0,0,0,0,0,0,0,0,0,0,0,0,0,0],"sum_hessian":[3.898E3,3.482E3,4.16E2,3.426E3,5.6E1,4.2E1,3.74E2,2.71E2,3.155E3,5E1,6E0,7E0,3.5E1,4E0,3.7E2,1.3E1,2.58E2,7.9E1,3.076E3,1E0,4.9E1,2E0,4E0,5E0,2E0,1.9E1,1.6E1,2E0,2E0,6.9E1,3.01E2,1E1,3E0,1E1,2.48E2,2E0,7.7E1,4.7E1,3.029E3,1.7E1,3.2E1,1E0,3E0,1E0,4E0,1E0,1E0,1.8E1,1E0,1.1E1,5E0,1E0,1E0,4E0,6.5E1,2.2E1,2.79E2,2E0,8E0,1E0,2E0,8E0,2E0,1.27E2,1.21E2,1E0,1E0,7E0,7E1,1.1E1,3.6E1,2.3E1,3.006E3,1E1,7E0,4E0,2.8E1,1E1,8E0,6E0,5E0,4E0,1E0,1E0,3E0,3.1E1,3.4E1,1.7E1,5E0,3.5E1,2.44E2],"tree_param":{"num_deleted":"0","num_feature":"4","num_nodes":"91","size_leaf_vector":"1"}},{"base_weights":[2.2349203E-2,1.6083887E-1,-9.0872955E-1,1.11478426E-1,1.0578181E1,-7.7230444E0,-6.1180305E-1,6.524943E0,6.559382E-2,1.4340061E1,-5.659668E-1,-1.01056795E1,4.929577E0,-1.9079044E-1,-3.2817047E0,1.2854647E1,-5.452857E0,-5.3642273E0,1.0302119E-1,8.573838E0,8.634234E0,-2.2827015E0,9.4514585E-1,-7.4047456E0,-1.7707764E1,3.3533707E-1,1.7482728E0,-1.5623796E0,5.769901E-1,-1.2221307E0,-6.6105204E0,2.2247787E0,2.0875124E1,1.1120496E1,-1.1776743E1,-9.785158E0,1.8081486E1,6.555456E-1,-2.4539499E-1,1.1232218E1,-1.1717993E0,-1.0342066E0,-2.2360955E-1,-9.248099E0,3.0513687E0,-6.2272525E0,-1.2837794E0,-1.0850738E0,-1.1226231E1,1.2167523E1,2.674798E-1,-3.3606281E0,5.9571238E0,-8.555026E0,-1.4090681E0,3.72564E0,-9.7290844E-1,1.2463084E1,2.7105114E0,4.6920996E0,3.121239E-1,-4.2278376E0,3.1793177E-1,-4.8118645E-1,-4.5316896E0,6.2308054E0,1.5026838E0,6.178895E0,1.6857804E-1,-3.7317906E-2,-7.443055E-1,1.2831956E-1,4.4287276E0,-4.8826078E-1,-3.904896E-2,-3.7828887E0,-4.0431818E-1,1.5381284E0,-1.6501236E-1,-1.8609833E0,2.5595235E-2,2.7745972E0,-6.3797755E0,-2.0736494E0,6.35455E0,-3.5089648E-1,5.075394E-1,-3.47557E-1,-2.731255E0,3.0464013E0,-2.166613E0,-2.7576652E0,3.4158385E-1,-2.2474694E0,1.963896E0],"categories":[],"categories_nodes":[],"categories_segments":[],"categories_sizes":[],"default_left":[0,0,0,0,0,0,0,0,0,0,0,0,0,0,0,0,0,0,0,0,0,0,0,0,0,0,0,0,0,0,0,0,0,0,0,0,0,0,0,0,0,0,0,0,0,0,0,0,0,0,0,0,0,0,0,0,0,0,0,0,0,0,0,0,0,0,0,0,0,0,0,0,0,0,0,0,0,0,0,0,0,0,0,0,0,0,0,0,0,0,0,0,0,0,0],"id":12,"left_children":[1,3,5,7,9,11,13,15,17,19,21,23,25,27,29,31,33,35,37,-1,39,41,-1,43,45,-1,-1,47,49,51,53,55,57,59,61,63,65,67,69,71,73,-1,-1,75,77,-1,-1,79,81,83,85,87,89,91,93,-1,-1,-1,-1,-1,-1,-1,-1,-1,-1,-1,-1,-1,-1,-1,-1,-1,-1,-1,-1,-1,-1,-1,-1,-1,-1,-1,-1,-1,-1,-1,-1,-1,-1,-1,-1,-1,-1,-1,-1],"loss_changes":[5.029019E2,1.7445457E3,1.017067E3,9.9423596E2,6.788832E2,6.828948E2,5.4454407E2,1.8896765E3,6.827753E2,7.2820874E2,3.9092438E1,2.3846777E2,7.1779175E0,4.4319485E2,4.444132E2,1.3176633E3,1.0742352E3,2.5609236E3,6.421765E2,0E0,2.6792102E2,4.5923195E0,0E0,3.1733405E2,7.498718E1,0E0,0E0,6.8432306E2,9.6534064E2,6.64838E2,2.4080176E2,4.8618597E2,1.827102E3,1.2040854E2,2.2304504E2,8.463286E2,3.6516357E1,2.3966387E3,5.5316473E2,2.988222E2,1.2122893E0,0E0,0E0,3.2825085E2,2.5246729E1,0E0,0E0,8.691228E2,1.6356113E3,1.3503434E3,5.423701E2,4.0683362E2,6.265393E2,1.2164697E2,4.3615118E2,0E0,0E0,0E0,0E0,0E0,0E0,0E0,0E0,0E0,0E0,0E0,0E0,0E0,0E0,0E0,0E0,0E0,0E0,0E0,0E0,0E0,0E0,0E0,0E0,0E0,0E0,0E0,0E0,0E0,0E0,0E0,0E0,0E0,0E0,0E0,0E0,0E0,0E0,0E0,0E0],"parents":[2147483647,0,0,1,1,2,2,3,3,4,4,5,5,6,6,7,7,8,8,9,9,10,10,11,11,12,12,13,13,14,14,15,15,16,16,17,17,18,18,20,20,21,21,23,23,24,24,27,27,28,28,29,29,30,30,31,31,32,32,33,33,34,34,35,35,36,36,37,37,38,38,39,39,40,40,43,43,44,44,47,47,48,48,49,49,50,50,51,51,52,52,53,53,54,54],"right_children":[2,4,6,8,10,12,14,16,18,20,22,24,26,28,30,32,34,36,38,-1,40,42,-1,44,46,-1,-1,48,50,52,54,56,58,60,62,64,66,68,70,72,74,-1,-1,76,78,-1,-1,80,82,84,86,88,90,92,94,-1,-1,-1,-1,-1,-1,-1,-1,-1,-1,-1,-1,-1,-1,-1,-1,-1,-1,-1,-1,-1,-1,-1,-1,-1,-1,-1,-1,-1,-1,-1,-1,-1,-1,-1,-1,-1,-1,-1,-1],"split_conditions":[3.3549606E1,3.337338E1,1.23145E1,1.0551583E1,1.7000002E0,4.0102448E1,2.798908E1,4.716332E1,1.1639081E1,1.3634917E1,2.4400002E1,1.1639081E1,1.0551583E1,4.116812E1,4E-1,2.8521906E1,2.4696102E1,3.2078403E1,1E-1,8.573838E0,2.9509916E1,6.6E0,9.4514585E-1,1.1289083E1,3.580507E1,3.3533707E-1,1.7482728E0,4.1063114E1,4.1352795E1,2E-1,4.2548588E1,2.378453E1,3.021642E1,9.345332E0,5.2689434E1,1.1289083E1,4.832631E1,1.2687E1,3.1565245E1,1.9672834E1,3.0016165E1,-1.0342066E0,-2.2360955E-1,4.5896553E1,1E-1,-6.2272525E0,-1.2837794E0,1.5374497E1,3.5428463E1,1.6103666E1,1E-1,3.971112E1,2.3093037E2,6.6E0,2.8530748E1,3.72564E0,-9.7290844E-1,1.2463084E1,2.7105114E0,4.6920996E0,3.121239E-1,-4.2278376E0,3.1793177E-1,-4.8118645E-1,-4.5316896E0,6.2308054E0,1.5026838E0,6.178895E0,1.6857804E-1,-3.7317906E-2,-7.443055E-1,1.2831956E-1,4.4287276E0,-4.8826078E-1,-3.904896E-2,-3.7828887E0,-4.0431818E-1,1.5381284E0,-1.6501236E-1,-1.8609833E0,2.5595235E-2,2.7745972E0,-6.3797755E0,-2.0736494E0,6.35455E0,-3.5089648E-1,5.075394E-1,-3.47557E-1,-2.731255E0,3.0464013E0,-2.166613E0,-2.7576652E0,3.4158385E-1,-2.2474694E0,1.963896E0],"split_indices":[2,2,0,0,1,2,0,3,0,0,1,0,0,3,1,2,2,2,1,0,0,1,0,0,2,0,0,3,3,1,2,2,2,0,3,0,3,0,2,0,0,0,0,3,1,0,0,0,2,0,1,2,3,1,0,0,0,0,0,0,0,0,0,0,0,0,0,0,0,0,0,0,0,0,0,0,0,0,0,0,0,0,0,0,0,0,0,0,0,0,0,0,0,0,0],"split_type":[0,0,0,0,0,0,0,0,0,0,0,0,0,0,0,0,0,0,0,0,0,0,0,0,0,0,0,0,0,0,0,0,0,0,0,0,0,0,0,0,0,0,0,0,0,0,0,0,0,0,0,0,0,0,0,0,0,0,0,0,0,0,0,0,0,0,0,0,0,0,0,0,0,0,0,0,0,0,0,0,0,0,0,0,0,0,0,0,0,0,0,0,0,0,0],"sum_hessian":[3.898E3,3.394E3,5.04E2,3.379E3,1.5E1,2E1,4.84E2,2.3E1,3.356E3,1.1E1,4E0,1.7E1,3E0,4.19E2,6.5E1,1.5E1,8E0,2.2E1,3.334E3,2E0,9E0,3E0,1E0,1.4E1,3E0,1E0,2E0,1.5E2,2.69E2,4.1E1,2.4E1,7E0,8E0,2E0,6E0,1.9E1,3E0,1.289E3,2.045E3,7E0,2E0,1E0,2E0,1.2E1,2E0,2E0,1E0,1.44E2,6E0,6E0,2.63E2,3.2E1,9E0,1.7E1,7E0,2E0,5E0,2E0,6E0,1E0,1E0,5E0,1E0,8E0,1.1E1,2E0,1E0,5E0,1.284E3,1.941E3,1.04E2,2E0,5E0,1E0,1E0,8E0,4E0,1E0,1E0,2.6E1,1.18E2,2E0,4E0,2E0,4E0,1.31E2,1.32E2,2.4E1,8E0,7E0,2E0,1.6E1,1E0,4E0,3E0],"tree_param":{"num_deleted":"0","num_feature":"4","num_nodes":"95","size_leaf_vector":"1"}},{"base_weights":[2.2172866E-2,6.917661E-1,-1.7842242E-1,2.2054692E-1,7.16162E0,-1.61767E0,-7.617886E-2,1.330305E0,-5.4201895E-1,-6.7837796E0,9.705704E0,1.2792941E1,-2.2096868E0,1.1082882E0,-2.0183781E-1,4.609683E-1,1.2335055E1,8.577815E0,-1.0016694E0,-9.610953E0,-1.4028072E-1,9.852725E0,8.123387E0,5.6367865E0,5.437276E0,-1.5871393E1,-1.4510707E0,1.9490341E1,8.276998E-1,-4.3199463E0,-1.4746329E-1,7.879121E-1,-6.0489883E0,4.1616564E0,3.7523876E1,4.665076E0,1.0323589E1,-1.63335E1,-8.0381274E-1,-5.0310926E0,-4.212121E0,-2.2868335E0,9.4490665E-1,-3.8313217E0,1.0491696E1,2.3349931E0,3.8364488E-1,1.1814778E0,-1.851005E1,5.759375E0,-2.9595127E0,7.843037E-1,7.2732677E0,5.513684E-1,9.6704645E0,5.246956E0,-5.5480604E0,1.7747165E0,-2.3320621E-1,-4.9820167E-1,6.0253567E-1,2.0105004E0,-1.4396138E0,1.35412035E1,-8.151856E-2,4.1777806E0,-1.7585332E0,-6.168513E0,-1.575417E0,1.2850399E-2,-1.053133E0,1.23946E0,-3.7550066E0,-9.024193E-1,-1.2665577E-1,9.648972E-1,-1.891323E0,4.324514E0,1.8922825E-1,-6.256945E0,-2.0595071E0,3.917637E0,3.9420757E-1,-9.864937E-1,4.3400903E0,7.089778E-2,2.5116885E0,-2.7340737E-1,4.0048895E0,-4.765844E-1,-3.1575916E0,-5.4005814E0,6.968585E-1,-1.2450148E0,-5.755298E-2],"categories":[],"categories_nodes":[],"categories_segments":[],"categories_sizes":[],"default_left":[0,0,0,0,0,0,0,0,0,0,0,0,0,0,0,0,0,0,0,0,0,0,0,0,0,0,0,0,0,0,0,0,0,0,0,0,0,0,0,0,0,0,0,0,0,0,0,0,0,0,0,0,0,0,0,0,0,0,0,0,0,0,0,0,0,0,0,0,0,0,0,0,0,0,0,0,0,0,0,0,0,0,0,0,0,0,0,0,0,0,0,0,0,0,0],"id":13,"left_children":[1,3,5,7,9,11,13,15,17,19,21,23,25,27,29,31,33,35,37,39,41,-1,43,-1,45,47,49,51,53,55,57,59,-1,61,63,65,-1,67,69,71,-1,73,-1,75,77,-1,-1,-1,79,81,83,-1,-1,85,87,-1,89,91,93,-1,-1,-1,-1,-1,-1,-1,-1,-1,-1,-1,-1,-1,-1,-1,-1,-1,-1,-1,-1,-1,-1,-1,-1,-1,-1,-1,-1,-1,-1,-1,-1,-1,-1,-1,-1],"loss_changes":[5.2382635E2,2.7392188E3,4.414853E2,7.107362E2,2.230016E3,1.7260017E3,4.1741907E2,3.2661707E3,2.0961765E3,1.8647507E2,1.6369077E3,2.5069434E2,1.9668557E3,1.3713135E3,5.670006E2,2.1601526E3,4.990795E3,2.2654404E3,1.427786E3,7.1365234E1,3.5451183E1,0E0,1.4558193E3,0E0,3.882602E1,5.956062E2,2.0074517E3,2.575232E2,6.446478E2,9.809373E2,4.129415E2,9.417544E2,0E0,4.8734827E2,1.7387988E3,2.2263604E3,0E0,1.7316736E2,1.0771843E3,3.9465164E2,0E0,2.7645617E0,0E0,1.7714203E2,1.6157993E3,0E0,0E0,0E0,1.0273804E2,1.0211909E3,9.185044E2,0E0,0E0,6.3617773E2,3.2362463E2,0E0,6.139074E2,1.2017472E3,3.8754706E2,0E0,0E0,0E0,0E0,0E0,0E0,0E0,0E0,0E0,0E0,0E0,0E0,0E0,0E0,0E0,0E0,0E0,0E0,0E0,0E0,0E0,0E0,0E0,0E0,0E0,0E0,0E0,0E0,0E0,0E0,0E0,0E0,0E0,0E0,0E0,0E0],"parents":[2147483647,0,0,1,1,2,2,3,3,4,4,5,5,6,6,7,7,8,8,9,9,10,10,11,11,12,12,13,13,14,14,15,15,16,16,17,17,18,18,19,19,20,20,22,22,24,24,25,25,26,26,27,27,28,28,29,29,30,30,31,31,33,33,34,34,35,35,37,37,38,38,39,39,41,41,43,43,44,44,48,48,49,49,50,50,53,53,54,54,56,56,57,57,58,58],"right_children":[2,4,6,8,10,12,14,16,18,20,22,24,26,28,30,32,34,36,38,40,42,-1,44,-1,46,48,50,52,54,56,58,60,-1,62,64,66,-1,68,70,72,-1,74,-1,76,78,-1,-1,-1,80,82,84,-1,-1,86,88,-1,90,92,94,-1,-1,-1,-1,-1,-1,-1,-1,-1,-1,-1,-1,-1,-1,-1,-1,-1,-1,-1,-1,-1,-1,-1,-1,-1,-1,-1,-1,-1,-1,-1,-1,-1,-1,-1,-1],"split_conditions":[1.8526585E1,1.8205751E1,1.9441164E1,2.6009844E1,1.35515E1,1.23954315E1,1.024578E1,2.5460934E1,3.3559002E1,1.2181624E1,1.3849477E1,1.8945333E1,1.8771412E1,1.9593668E1,1.0483357E1,2.5284714E1,4.752237E1,1.781825E1,2.6230639E1,1.7854057E2,1.8318249E1,9.852725E0,1.6055353E1,5.6367865E0,1.1631956E1,1.8697416E1,3.1173424E1,9.290511E0,1.01887E1,2.0929083E1,1.8771412E1,3.7049038E1,-6.0489883E0,4.1572823E1,2.5762016E1,1.7253666E1,1.0323589E1,1E-1,1.6805752E1,1.1298495E1,-4.212121E0,1.8245333E1,9.4490665E-1,1.8245333E1,1.841825E1,2.3349931E0,3.8364488E-1,1.1814778E0,1.5281989E1,4E-1,3.0900002E1,7.843037E-1,7.2732677E0,3.4588666E2,1E-1,5.246956E0,2.6452274E2,1.0661107E1,2.101737E1,-4.9820167E-1,6.0253567E-1,2.0105004E0,-1.4396138E0,1.35412035E1,-8.151856E-2,4.1777806E0,-1.7585332E0,-6.168513E0,-1.575417E0,1.2850399E-2,-1.053133E0,1.23946E0,-3.7550066E0,-9.024193E-1,-1.2665577E-1,9.648972E-1,-1.891323E0,4.324514E0,1.8922825E-1,-6.256945E0,-2.0595071E0,3.917637E0,3.9420757E-1,-9.864937E-1,4.3400903E0,7.089778E-2,2.5116885E0,-2.7340737E-1,4.0048895E0,-4.765844E-1,-3.1575916E0,-5.4005814E0,6.968585E-1,-1.2450148E0,-5.755298E-2],"split_indices":[0,0,0,2,2,3,2,2,3,2,2,0,3,0,2,2,3,0,2,3,0,0,2,0,2,0,3,2,2,0,3,3,0,3,2,0,0,1,0,2,0,0,0,0,0,0,0,0,2,1,1,0,0,3,1,0,3,2,3,0,0,0,0,0,0,0,0,0,0,0,0,0,0,0,0,0,0,0,0,0,0,0,0,0,0,0,0,0,0,0,0,0,0,0,0],"split_type":[0,0,0,0,0,0,0,0,0,0,0,0,0,0,0,0,0,0,0,0,0,0,0,0,0,0,0,0,0,0,0,0,0,0,0,0,0,0,0,0,0,0,0,0,0,0,0,0,0,0,0,0,0,0,0,0,0,0,0,0,0,0,0,0,0,0,0,0,0,0,0,0,0,0,0,0,0,0,0,0,0,0,0,0,0,0,0,0,0,0,0,0,0,0,0],"sum_hessian":[3.898E3,8.98E2,3E3,8.38E2,6E1,1.98E2,2.802E3,3.41E2,4.97E2,9E0,5.1E1,7E0,1.91E2,2.68E2,2.534E3,3.17E2,2.4E1,2.3E1,4.74E2,6E0,3E0,2E0,4.9E1,3E0,4E0,9E0,1.82E2,3E0,2.65E2,3.2E1,2.502E3,3.13E2,4E0,1.9E1,5E0,2.1E1,2E0,5E0,4.69E2,4E0,2E0,2E0,1E0,8E0,4.1E1,2E0,2E0,1E0,8E0,3.1E1,1.51E2,1E0,2E0,2.58E2,7E0,1E0,3.1E1,1.06E2,2.396E3,1.04E2,2.09E2,1.5E1,4E0,4E0,1E0,1.1E1,1E1,3E0,2E0,3.58E2,1.11E2,2E0,2E0,1E0,1E0,2E0,6E0,2.9E1,1.2E1,6E0,2E0,1.1E1,2E1,1.49E2,2E0,2.49E2,9E0,2E0,5E0,1.8E1,1.3E1,2E0,1.04E2,2.4E1,2.372E3],"tree_param":{"num_deleted":"0","num_feature":"4","num_nodes":"95","size_leaf_vector":"1"}},{"base_weights":[2.5148131E-2,7.162342E-2,-2.061068E0,1.6505115E-1,-1.1655154E0,-3.0463183E0,-5.347048E-2,4.53308E-2,2.2346218E0,-6.787176E0,-8.289389E-1,-6.314378E0,-2.0345163E0,4.224645E0,-1.061248E0,1.1109088E-1,-4.9056406E0,7.4459726E-1,5.802846E0,2.3556728E0,-9.269195E0,1.7361332E1,-1.1894286E0,-2.1292E-1,-2.180665E0,5.291128E0,-3.761443E0,1.8244642E0,-3.035795E0,7.5244516E-2,7.490741E0,-8.994917E-1,-9.668044E0,1.5723487E0,-8.077823E0,1.8233099E1,4.520693E0,-1.2843316E0,1.7984902E0,-1.3307003E1,-4.4840446E0,7.3271832E0,-1.6333661E0,-2.1228814E0,5.8385545E-1,1.5366989E0,2.3961995E0,-4.4988685E0,1.8578537E0,-1.517728E0,5.7882867E0,4.4535284E0,-4.958759E0,7.294349E-2,-2.264138E-1,4.0544553E0,3.9110172E-1,-2.2121515E0,1.1724986E0,-7.097851E-1,-3.5833037E0,7.767491E-1,-1.5478036E0,-3.6127226E0,-3.5676956E-2,2.347194E0,6.7693563E0,-2.0620355E-1,1.9223609E0,-9.467755E-1,-4.4118114E0,-2.3010476E0,-5.3075984E-2,-1.2139053E0,9.908929E-2,7.661912E-1,-1.718866E0,-3.8514033E-1,7.6883227E-1,-5.206759E-2,-1.8340884E0,1.7037667E0,-7.748398E-1,-2.181713E0,-6.45076E-2,-1.7399254E-1,1.8974065E0,-2.7291818E0,-7.1808803E-1],"categories":[],"categories_nodes":[],"categories_segments":[],"categories_sizes":[],"default_left":[0,0,0,0,0,0,0,0,0,0,0,0,0,0,0,0,0,0,0,0,0,0,0,0,0,0,0,0,0,0,0,0,0,0,0,0,0,0,0,0,0,0,0,0,0,0,0,0,0,0,0,0,0,0,0,0,0,0,0,0,0,0,0,0,0,0,0,0,0,0,0,0,0,0,0,0,0,0,0,0,0,0,0,0,0,0,0,0,0],"id":14,"left_children":[1,3,5,7,9,11,13,15,17,19,21,23,25,-1,27,29,31,33,35,37,39,41,43,-1,-1,45,47,49,51,53,55,57,59,61,63,65,67,-1,-1,69,71,-1,-1,73,75,77,-1,79,81,83,-1,85,87,-1,-1,-1,-1,-1,-1,-1,-1,-1,-1,-1,-1,-1,-1,-1,-1,-1,-1,-1,-1,-1,-1,-1,-1,-1,-1,-1,-1,-1,-1,-1,-1,-1,-1,-1,-1],"loss_changes":[3.781849E2,4.4114178E2,1.6796588E2,8.7898566E2,5.014617E2,1.7563116E2,4.2806586E2,1.0928534E3,1.0271272E3,3.622259E2,1.686231E3,6.43866E1,5.891905E2,0E0,1.6508197E2,8.755719E2,8.3077527E2,1.0204837E3,8.2601025E2,1.2227783E2,1.7218909E2,9.38323E2,4.1505875E2,0E0,0E0,7.883023E1,1.6167926E2,7.299336E2,2.6691284E2,4.596211E2,5.787262E2,8.0700665E2,3.0417578E2,8.8265906E2,3.772126E2,4.8887207E1,5.2531433E2,0E0,0E0,3.8799194E1,9.470392E1,0E0,0E0,7.7518933E2,1.0967515E3,1.7760319E1,0E0,2.29422E2,9.9515144E1,8.089881E1,0E0,4.1342117E1,1.2684619E2,0E0,0E0,0E0,0E0,0E0,0E0,0E0,0E0,0E0,0E0,0E0,0E0,0E0,0E0,0E0,0E0,0E0,0E0,0E0,0E0,0E0,0E0,0E0,0E0,0E0,0E0,0E0,0E0,0E0,0E0,0E0,0E0,0E0,0E0,0E0,0E0],"parents":[2147483647,0,0,1,1,2,2,3,3,4,4,5,5,6,6,7,7,8,8,9,9,10,10,11,11,12,12,14,14,15,15,16,16,17,17,18,18,19,19,20,20,21,21,22,22,25,25,26,26,27,27,28,28,29,29,30,30,31,31,32,32,33,33,34,34,35,35,36,36,39,39,40,40,43,43,44,44,45,45,47,47,48,48,49,49,51,51,52,52],"right_children":[2,4,6,8,10,12,14,16,18,20,22,24,26,-1,28,30,32,34,36,38,40,42,44,-1,-1,46,48,50,52,54,56,58,60,62,64,66,68,-1,-1,70,72,-1,-1,74,76,78,-1,80,82,84,-1,86,88,-1,-1,-1,-1,-1,-1,-1,-1,-1,-1,-1,-1,-1,-1,-1,-1,-1,-1,-1,-1,-1,-1,-1,-1,-1,-1,-1,-1,-1,-1,-1,-1,-1,-1,-1,-1],"split_conditions":[3.9899998E1,2.957306E2,2.3300117E2,2.6618597E2,1.7253666E1,1.4578888E1,1.0587918E1,2.6155356E2,1.4693999E1,1.024578E1,1.8016165E1,1.8318249E1,1.839878E1,4.224645E0,2.4798225E1,2.6006363E2,1.3397612E1,2.9695747E1,2.6812006E2,1.6639082E1,1.2682018E1,1.1043261E1,3.389792E2,-2.1292E-1,-2.180665E0,4.752237E1,4.741625E1,2.4184391E1,2.3318665E1,2.8399498E1,3E-1,8.000001E-1,2.4572416E1,1.3627795E1,1.3905509E1,2.5932833E1,2.4314081E1,-1.2843316E0,1.7984902E0,1.600575E1,1.5772835E1,7.3271832E0,-1.6333661E0,2.6497835E1,2.5809916E1,1.5496736E1,2.3961995E0,5.04E1,3.529524E1,1.1440979E1,5.7882867E0,2.1982832E1,2.8766228E1,7.294349E-2,-2.264138E-1,4.0544553E0,3.9110172E-1,-2.2121515E0,1.1724986E0,-7.097851E-1,-3.5833037E0,7.767491E-1,-1.5478036E0,-3.6127226E0,-3.5676956E-2,2.347194E0,6.7693563E0,-2.0620355E-1,1.9223609E0,-9.467755E-1,-4.4118114E0,-2.3010476E0,-5.3075984E-2,-1.2139053E0,9.908929E-2,7.661912E-1,-1.718866E0,-3.8514033E-1,7.6883227E-1,-5.206759E-2,-1.8340884E0,1.7037667E0,-7.748398E-1,-2.181713E0,-6.45076E-2,-1.7399254E-1,1.8974065E0,-2.7291818E0,-7.1808803E-1],"split_indices":[1,3,3,3,0,2,2,3,2,2,0,0,2,0,2,3,2,0,3,0,2,2,3,0,0,3,2,2,0,0,1,1,0,2,2,0,0,0,0,0,0,0,0,0,0,2,0,1,3,2,0,0,2,0,0,0,0,0,0,0,0,0,0,0,0,0,0,0,0,0,0,0,0,0,0,0,0,0,0,0,0,0,0,0,0,0,0,0,0],"split_type":[0,0,0,0,0,0,0,0,0,0,0,0,0,0,0,0,0,0,0,0,0,0,0,0,0,0,0,0,0,0,0,0,0,0,0,0,0,0,0,0,0,0,0,0,0,0,0,0,0,0,0,0,0,0,0,0,0,0,0,0,0,0,0,0,0,0,0,0,0,0,0,0,0,0,0,0,0,0,0,0,0,0,0,0,0,0,0,0,0],"sum_hessian":[3.898E3,3.814E3,8.4E1,3.547E3,2.67E2,5.6E1,2.8E1,3.354E3,1.93E2,1.4E1,2.53E2,1.2E1,4.4E1,1E0,2.7E1,3.311E3,4.3E1,1.37E2,5.6E1,3E0,1.1E1,4E0,2.49E2,2E0,1E1,8E0,3.6E1,1.1E1,1.6E1,3.296E3,1.5E1,2.4E1,1.9E1,1.26E2,1.1E1,4E0,5.2E1,1E0,2E0,5E0,6E0,3E0,1E0,1.63E2,8.6E1,4E0,4E0,3.2E1,4E0,1E1,1E0,3E0,1.3E1,2.742E3,5.54E2,7E0,8E0,1E1,1.4E1,5E0,1.4E1,1.1E2,1.6E1,7E0,4E0,2E0,2E0,1.4E1,3.8E1,1E0,4E0,3E0,3E0,9.1E1,7.2E1,6.6E1,2E1,1E0,3E0,9E0,2.3E1,2E0,2E0,1E0,9E0,1E0,2E0,4E0,9E0],"tree_param":{"num_deleted":"0","num_feature":"4","num_nodes":"89","size_leaf_vector":"1"}},{"base_weights":[1.9468108E-2,8.129717E-2,-1.1244669E0,2.8138606E-2,2.5821457E0,-3.3510597E0,6.5491915E-1,7.833697E-2,-2.2549605E0,6.4212327E0,-1.7417653E0,-2.4892454E0,-1.1765774E1,1.7366987E1,-2.883269E-1,2.3136199E-2,6.1410737E0,-4.509345E0,3.6884427E0,1.580423E1,2.4539924E0,-1.0303517E1,-8.200657E-2,-6.9952865E0,-6.140891E-1,-7.751267E-1,-3.8125153E0,3.9816082E0,6.9192824E0,4.8700495E0,-1.6807308E0,8.7912954E-2,-3.586974E0,8.814326E0,-2.0736222E0,-5.9097586E0,6.3378587E0,8.689905E0,-1.8273509E0,7.384316E0,2.891676E0,1.4101442E1,1.1971393E-1,-4.133705E0,1.0610974E0,1.5448245E0,-5.1556025E0,-9.861283E0,1.373746E0,7.1487823E0,-2.3490775E0,1.5425922E0,2.4913159E-1,2.3499935E0,1.0294465E1,-3.6171474E0,-5.9493405E-1,-6.273261E-4,4.7053337E-1,1.4581696E0,-1.2760097E0,-7.4576014E-1,3.8681064E0,-2.5057802E0,-1.0286964E0,4.2615533E0,-9.341775E-1,-3.149265E0,1.2315184E0,2.240636E0,-3.792229E-1,1.7153347E0,7.1454124E0,-8.081647E-1,2.9842048E0,-4.820919E-1,1.9299655E0,2.7946883E-1,-3.4426978E0,-3.458608E0,6.9559824E-1,1.0938402E0,-1.8390874E0,-4.054468E0,-5.0557595E-1,-5.892089E-1,1.1485394E0,-1.6545296E-2,3.6085777E0,1.3131763E0,-6.4786345E-1],"categories":[],"categories_nodes":[],"categories_segments":[],"categories_sizes":[],"default_left":[0,0,0,0,0,0,0,0,0,0,0,0,0,0,0,0,0,0,0,0,0,0,0,0,0,0,0,0,0,0,0,0,0,0,0,0,0,0,0,0,0,0,0,0,0,0,0,0,0,0,0,0,0,0,0,0,0,0,0,0,0,0,0,0,0,0,0,0,0,0,0,0,0,0,0,0,0,0,0,0,0,0,0,0,0,0,0,0,0,0,0],"id":15,"left_children":[1,3,5,7,9,11,13,15,17,19,21,23,25,27,29,31,33,35,37,39,41,43,45,47,49,-1,-1,51,-1,53,55,57,59,61,-1,63,65,-1,67,-1,69,71,73,-1,-1,75,77,79,81,-1,83,-1,-1,85,87,-1,89,-1,-1,-1,-1,-1,-1,-1,-1,-1,-1,-1,-1,-1,-1,-1,-1,-1,-1,-1,-1,-1,-1,-1,-1,-1,-1,-1,-1,-1,-1,-1,-1,-1,-1],"loss_changes":[2.7586157E2,4.918109E2,7.9458826E2,4.155155E2,1.2893743E3,6.161331E2,1.7705297E3,1.1869244E3,1.0617322E3,1.4874252E3,5.249414E2,6.885659E2,3.640515E1,3.6572913E2,7.7671747E2,8.2253613E2,1.1775448E3,9.0331775E2,3.1203416E3,1.2939629E3,8.1396356E2,3.3735236E2,2.7208875E2,5.8920166E2,2.558105E3,0E0,0E0,6.6994286E0,0E0,2.9021417E2,9.504955E2,4.603952E2,3.6969482E2,1.2766863E3,0E0,2.8042578E2,5.6475525E2,0E0,1.02036176E3,0E0,1.2356914E2,2.7111694E2,7.4572284E2,0E0,0E0,3.9551862E2,3.1846014E2,3.9229248E2,1.4171645E2,0E0,3.923039E2,0E0,0E0,1.1594789E2,1.26296326E2,0E0,6.162568E2,0E0,0E0,0E0,0E0,0E0,0E0,0E0,0E0,0E0,0E0,0E0,0E0,0E0,0E0,0E0,0E0,0E0,0E0,0E0,0E0,0E0,0E0,0E0,0E0,0E0,0E0,0E0,0E0,0E0,0E0,0E0,0E0,0E0,0E0],"parents":[2147483647,0,0,1,1,2,2,3,3,4,4,5,5,6,6,7,7,8,8,9,9,10,10,11,11,12,12,13,13,14,14,15,15,16,16,17,17,18,18,19,19,20,20,21,21,22,22,23,23,24,24,27,27,29,29,30,30,31,31,32,32,33,33,35,35,36,36,38,38,40,40,41,41,42,42,45,45,46,46,47,47,48,48,50,50,53,53,54,54,56,56],"right_children":[2,4,6,8,10,12,14,16,18,20,22,24,26,28,30,32,34,36,38,40,42,44,46,48,50,-1,-1,52,-1,54,56,58,60,62,-1,64,66,-1,68,-1,70,72,74,-1,-1,76,78,80,82,-1,84,-1,-1,86,88,-1,90,-1,-1,-1,-1,-1,-1,-1,-1,-1,-1,-1,-1,-1,-1,-1,-1,-1,-1,-1,-1,-1,-1,-1,-1,-1,-1,-1,-1,-1,-1,-1,-1,-1,-1],"split_conditions":[3.928456E1,3.772965E1,4.2661514E1,3.6E1,5E-1,4.241261E1,4.2874588E1,3.5428463E1,1.2E0,3.8268524E1,3.7636696E1,1.6539085E1,1.5772835E1,1.5172833E1,1.7503666E1,3.461995E1,2.8430748E1,2.2905803E2,3.934106E1,4.4812668E1,4.0889942E1,1.76245E1,2.7505753E1,4.4E0,1.6805752E1,-7.751267E-1,-3.8125153E0,1.4284917E1,6.9192824E0,4.5768375E1,1.8778666E1,3.219938E1,3.457479E1,4.098331E1,-2.0736222E0,1.781825E1,3.0109919E1,8.689905E0,2.1620337E1,7.384316E0,4.8094723E1,3.9686844E1,3E-1,-4.133705E0,1.0610974E0,1.8205751E1,1.6999999E0,4.1352795E1,3.99022E1,7.1487823E0,1.6947416E1,1.5425922E0,2.4913159E-1,4.3667847E1,9.345332E0,-3.6171474E0,2.1028666E1,-6.273261E-4,4.7053337E-1,1.4581696E0,-1.2760097E0,-7.4576014E-1,3.8681064E0,-2.5057802E0,-1.0286964E0,4.2615533E0,-9.341775E-1,-3.149265E0,1.2315184E0,2.240636E0,-3.792229E-1,1.7153347E0,7.1454124E0,-8.081647E-1,2.9842048E0,-4.820919E-1,1.9299655E0,2.7946883E-1,-3.4426978E0,-3.458608E0,6.9559824E-1,1.0938402E0,-1.8390874E0,-4.054468E0,-5.0557595E-1,-5.892089E-1,1.1485394E0,-1.6545296E-2,3.6085777E0,1.3131763E0,-6.4786345E-1],"split_indices":[2,2,3,2,1,3,3,2,1,2,3,0,0,0,0,2,0,3,3,3,3,0,0,1,0,0,0,0,0,3,0,2,3,3,0,0,0,0,0,0,3,3,1,0,0,0,1,3,3,0,0,0,0,3,0,0,0,0,0,0,0,0,0,0,0,0,0,0,0,0,0,0,0,0,0,0,0,0,0,0,0,0,0,0,0,0,0,0,0,0,0],"split_type":[0,0,0,0,0,0,0,0,0,0,0,0,0,0,0,0,0,0,0,0,0,0,0,0,0,0,0,0,0,0,0,0,0,0,0,0,0,0,0,0,0,0,0,0,0,0,0,0,0,0,0,0,0,0,0,0,0,0,0,0,0,0,0,0,0,0,0,0,0,0,0,0,0,0,0,0,0,0,0,0,0,0,0,0,0,0,0,0,0,0,0],"sum_hessian":[3.898E3,3.699E3,1.99E2,3.623E3,7.6E1,8.8E1,1.11E2,3.546E3,7.7E1,4E1,3.6E1,8.1E1,7E0,5E0,1.06E2,3.515E3,3.1E1,5.6E1,2.1E1,1.1E1,2.9E1,5E0,3.1E1,2.3E1,5.8E1,1E0,6E0,2E0,3E0,2.2E1,8.4E1,3.454E3,6.1E1,2.6E1,5E0,5E1,6E0,3E0,1.8E1,6E0,5E0,4E0,2.5E1,4E0,1E0,2.4E1,7E0,1.7E1,6E0,3E0,5.5E1,1E0,1E0,1.6E1,6E0,7E0,7.7E1,3.257E3,1.97E2,4E0,5.7E1,7E0,1.9E1,2.4E1,2.6E1,3E0,3E0,7E0,1.1E1,2E0,3E0,3E0,1E0,2E1,5E0,1.5E1,9E0,4E0,3E0,1.5E1,2E0,5E0,1E0,2E0,5.3E1,4E0,1.2E1,1E0,5E0,1.8E1,5.9E1],"tree_param":{"num_deleted":"0","num_feature":"4","num_nodes":"91","size_leaf_vector":"1"}},{"base_weights":[2.0849666E-2,7.88293E-1,-6.2488653E-2,2.0712705E-1,5.488038E0,-6.89747E-1,1.197083E-1,5.472403E-1,-5.5856996E0,2.354877E1,2.4109452E0,-1.3076644E0,1.0859857E0,4.1594343E0,2.3266962E-3,3.6146957E-1,1.5272089E1,-9.156784E0,6.2446947E0,1.0165975E1,5.7463115E-1,7.3653297E0,-9.249988E-1,-3.2679263E-1,-2.790151E0,1.9823404E1,2.2444886E-1,1.5992296E1,1.0387051E0,-9.241227E0,6.1961643E-2,2.1735022E0,-5.210531E-1,5.4460573E0,9.9416715E-1,-1.1763293E1,9.519377E-1,-9.5209754E-1,2.8178093E0,1.4710756E1,-9.007635E-1,-1.5552407E1,4.0021925E0,-8.6278594E-1,5.508561E0,-1.6413298E1,-2.2977486E0,2.8477777E1,-6.977937E0,1.6540764E1,-2.7722392E-2,6.9816575E0,2.9846418E1,1.9069931E1,-8.7754154E-1,-1.1617131E1,-1.2156303E0,3.1923156E0,-7.050567E-2,-2.0507856E-1,2.9053922E0,6.357591E-1,-4.9400383E-1,-3.902689E0,-1.805914E0,1.2106712E0,-1.2448443E0,5.9171766E-1,6.5877895E0,-1.2185594E0,1.7165078E0,-5.5843205E0,-3.636532E-2,-6.6342604E-1,2.4472044E0,-1.8893754E-1,-2.6998143E0,2.4767137E0,-9.234201E-1,-5.6000835E-1,-7.430376E0,1.8257331E0,-8.258587E-1,1.0638203E1,-2.0129414E0,-5.5322516E-1,-2.5868466E0,6.540903E0,9.024411E-1,-5.5855174E-2,4.607072E0,-1.4312946E0,5.271207E0,1.0325468E1,1.0481077E0,-1.6236764E-1,6.9301224E0,-1.851342E0,4.0163055E-1,-5.357819E-1,-3.972679E0,-2.9660418E0,2.3582265E0,-1.23852E0,1.4768075E0,-9.8519707E-1,-2.1031825E-3],"categories":[],"categories_nodes":[],"categories_segments":[],"categories_sizes":[],"default_left":[0,0,0,0,0,0,0,0,0,0,0,0,0,0,0,0,0,0,0,0,0,0,0,0,0,0,0,0,0,0,0,0,0,0,0,0,0,0,0,0,0,0,0,0,0,0,0,0,0,0,0,0,0,0,0,0,0,0,0,0,0,0,0,0,0,0,0,0,0,0,0,0,0,0,0,0,0,0,0,0,0,0,0,0,0,0,0,0,0,0,0,0,0,0,0,0,0,0,0,0,0,0,0,0,0,0,0],"id":16,"left_children":[1,3,5,7,9,11,13,15,17,19,21,23,25,27,29,31,33,35,37,-1,-1,39,41,43,45,47,49,51,53,55,57,59,61,-1,-1,63,65,-1,-1,67,69,71,73,75,77,79,81,83,85,87,89,91,93,95,97,99,101,103,105,-1,-1,-1,-1,-1,-1,-1,-1,-1,-1,-1,-1,-1,-1,-1,-1,-1,-1,-1,-1,-1,-1,-1,-1,-1,-1,-1,-1,-1,-1,-1,-1,-1,-1,-1,-1,-1,-1,-1,-1,-1,-1,-1,-1,-1,-1,-1,-1],"loss_changes":[2.4941931E2,1.0422319E3,4.0213562E2,6.7490076E2,2.2773564E3,8.70447E2,1.2931052E3,8.780287E2,8.5988086E2,1.2769402E3,6.183323E2,8.54116E2,3.3048606E3,2.8267798E3,1.4619067E3,5.1286365E2,7.7668335E1,4.064248E2,1.7805423E2,0E0,0E0,9.240207E2,1.7199006E3,1.11509E3,1.5319746E3,2.2862554E3,